{"q_net.0.weight": [[0.09953366219997406, 0.11496776342391968, -0.009781701490283012, 0.1167239397764206, -0.002062996616587043, 0.03468926623463631, -0.047824326902627945, 0.08861780166625977, 0.1430765837430954, -0.09086992591619492, 0.1241484060883522, 0.03439384698867798, 0.10173214226961136, 0.022635286673903465, 0.05324499309062958, -0.013095849193632603, 0.09280093759298325, 0.012049905024468899, -0.048866190016269684, 0.01622907817363739, -0.044852811843156815, -0.018399517983198166, -0.043929316103458405, 0.09627354145050049, -0.10742717236280441, -0.061753951013088226, -0.055127281695604324, -0.08603035658597946, 0.0008246379438787699, -0.14612552523612976, 0.10498311370611191, -0.12233606725931168, 0.11143255233764648, 0.12120972573757172, 0.05032330006361008, 0.18638385832309723, 0.11968643963336945, 0.2138100564479828, 0.11297020316123962, 0.051671102643013, 0.13597239553928375, 0.058050137013196945, 0.15793704986572266, 0.22605890035629272, 0.18062683939933777, 0.03409118577837944, 0.18051235377788544, 0.12301741540431976], [0.02294258400797844, -0.1276964545249939, -0.16680088639259338, -0.058993205428123474, -0.13032351434230804, 0.07440707087516785, 0.007765706162899733, 0.08176372945308685, 0.029363546520471573, -0.0046187457628548145, 0.08881549537181854, -0.11958511173725128, -0.0332777239382267, -0.13422994315624237, 0.01379416324198246, -0.09949667751789093, -0.01566767320036888, -0.07528523355722427, 0.08971147984266281, -0.09407457709312439, -0.1152181327342987, -0.1386774778366089, 0.08683689683675766, 0.0658230111002922, 0.1114998310804367, -0.1337554156780243, -0.18307730555534363, -0.13831274211406708, -0.14889295399188995, 0.014545144513249397, 0.00942971184849739, 0.061821892857551575, -0.07453957945108414, -0.025692692026495934, 0.14928866922855377, 0.014365088194608688, 0.16030830144882202, 0.03845609351992607, 0.1552753746509552, -0.03943793103098869, -0.00013208985910750926, 0.11671304702758789, 0.10322213917970657, 0.035907868295907974, 0.1587434560060501, 0.17083010077476501, -0.03196175396442413, -0.004349181428551674], [0.13216441869735718, -0.04870418459177017, -0.05117003247141838, -0.13966025412082672, -0.0826578214764595, 0.03605605289340019, -0.019051574170589447, -0.10477261245250702, 0.0033856818918138742, -0.09859432280063629, -0.12245550751686096, -0.07948130369186401, -0.12632597982883453, -0.09190522134304047, 0.14428110420703888, 0.027261752635240555, 0.04447902366518974, -0.13462138175964355, -0.09479713439941406, -0.04804359748959541, 0.022570226341485977, -0.1270056962966919, -0.06219116598367691, -0.08641036599874496, 0.000399996672058478, -0.05370847135782242, -0.010001981630921364, -0.09780742228031158, -0.09907260537147522, -0.08420679718255997, -0.04940637946128845, -0.11392287909984589, 0.12102270126342773, -0.028645815327763557, 0.12418757379055023, 0.04497300088405609, -0.12222461402416229, 0.09988667815923691, -0.03971373289823532, -0.05532835051417351, -0.11981035023927689, -0.14349472522735596, 0.04129651188850403, -0.031529657542705536, 0.05619395151734352, -0.11845256388187408, 0.10716041177511215, -0.10595152527093887], [-0.0788455456495285, 0.027049191296100616, 0.017458397895097733, 0.11724050343036652, 0.07819727063179016, -0.11899515986442566, 0.019913071766495705, -0.06426738202571869, -0.03970992565155029, -0.10960929095745087, 0.10991642624139786, -0.1378866583108902, 0.09447796642780304, 0.053696490824222565, 0.055113062262535095, -0.05870750546455383, 0.08163796365261078, 0.030875179916620255, -0.036686211824417114, -0.12472620606422424, 0.010346291586756706, -0.02416270785033703, -0.0813753679394722, 0.12345024198293686, 0.011416357941925526, -0.07891162484884262, -0.09228623658418655, -0.03632085770368576, 0.10090416669845581, -0.031891368329524994, -0.07142286747694016, -0.026600953191518784, -0.1078309640288353, 0.021206075325608253, 0.08092599362134933, -0.16686458885669708, 0.002449765568599105, 0.04343508929014206, -0.00499384943395853, -0.08259548991918564, 0.04412233456969261, 0.04462207481265068, 0.022729607298970222, -0.056615713983774185, -0.06948190927505493, -0.015827123075723648, -0.05677259340882301, -0.07429292798042297], [0.09226156771183014, 0.12404363602399826, -0.014289037324488163, -0.03231672942638397, 0.0021062155719846487, -0.008618141524493694, 0.03470037877559662, 0.04044823721051216, -0.13109557330608368, -0.0532660111784935, 0.12155091762542725, 0.056227415800094604, -0.007178999949246645, -0.08702194690704346, -0.08830645680427551, -0.1292928010225296, -0.047048620879650116, 0.04874340072274208, 0.09203275293111801, 0.06664027273654938, -0.12758633494377136, -0.08679919689893723, -0.022778870537877083, 0.13962487876415253, 0.020879510790109634, -0.03737920522689819, 0.05971464887261391, -0.054975513368844986, -0.09342330694198608, 0.10535014420747757, -0.06563054770231247, -0.028934882953763008, -0.1435876190662384, 0.09660089015960693, 0.1093551367521286, 0.05260356515645981, -0.1006428599357605, -0.14245250821113586, -0.1172279343008995, 0.10763255506753922, 0.06929729878902435, 0.12146070599555969, 0.07561410218477249, 0.03653070703148842, -0.0014134523225948215, -0.10976959019899368, -0.12366440892219543, -0.13500593602657318], [0.059086307883262634, -0.07086512446403503, -0.029048306867480278, -0.08306702971458435, -0.026301704347133636, -0.10158981382846832, -0.09431242942810059, 0.04787833243608475, -0.04289660230278969, 0.08910581469535828, -0.04630475491285324, -0.10588131099939346, -0.025466764345765114, -0.06996726244688034, -0.04415886104106903, -0.13740873336791992, 0.0807555541396141, -0.10048846900463104, 0.07254661619663239, 0.06549811363220215, 0.10311947762966156, -0.11071442812681198, 0.10380711406469345, -0.06823581457138062, 0.05355922505259514, 0.13554953038692474, -0.02035619504749775, -0.0011162293376401067, -0.033230919390916824, -0.12051963806152344, 0.06926801055669785, -0.14328648149967194, 0.08960474282503128, 0.10799698531627655, 0.13650095462799072, -0.03404627740383148, -0.11859379708766937, 0.03245145455002785, 0.07973600924015045, -0.14366044104099274, -0.03276227042078972, -0.08652394264936447, -0.012624302878975868, -0.07104489952325821, -0.059000518172979355, -0.045821238309144974, -0.13716456294059753, 0.11843005567789078], [0.1210026890039444, -0.022642096504569054, -0.016437459737062454, -0.05890703573822975, -0.13034588098526, -0.1404612958431244, 0.053644273430109024, -0.07924798876047134, -0.09279129654169083, -0.01126167830079794, -0.048066020011901855, -0.04669620096683502, 0.004637738224118948, -0.03061579167842865, -0.04969721660017967, -0.06910967826843262, -0.11746586114168167, 0.12102808058261871, -0.057762037962675095, 0.03824649378657341, -0.05008021369576454, 0.01172905508428812, 0.13456597924232483, 0.06649959087371826, -0.12508288025856018, 0.05728798359632492, 0.13701139390468597, 0.03797280788421631, 0.09676747024059296, 0.14230060577392578, -0.022116700187325478, 0.029957905411720276, -0.10031967610120773, -0.029744666069746017, 0.10689406096935272, 0.07399405539035797, -0.0913352221250534, -0.11574213206768036, -0.09863504767417908, -0.14244352281093597, -0.11137649416923523, -0.03569430485367775, 0.09741012752056122, 0.024159545078873634, -0.10978394001722336, -0.11579104512929916, 0.07180436700582504, -0.1073642373085022], [-0.03549192473292351, 0.061915043741464615, -0.06059074029326439, -0.030618783086538315, -0.0007524019456468523, -0.049414943903684616, -0.07406410574913025, -0.1305224895477295, -0.10817071050405502, -0.07023230195045471, 0.12863366305828094, -0.0617399588227272, -0.11033886671066284, 0.00836540199816227, 0.01668786071240902, 0.07000692933797836, 0.08269502222537994, 0.0675988495349884, -0.14308258891105652, -0.00763274822384119, 0.08970456570386887, -0.037316784262657166, -0.09506448358297348, 0.13172568380832672, -0.05667054280638695, -0.08755890280008316, -0.15654374659061432, 0.006250367034226656, 0.041005939245224, -0.0025723741855472326, -0.005897223018109798, -0.12705856561660767, -0.13479501008987427, 0.10395287722349167, 0.2330239713191986, 0.1846843808889389, 0.017375357449054718, 0.08267762511968613, -0.004989382810890675, 0.03178231418132782, 0.12755289673805237, 0.1800110787153244, 0.2209785282611847, -0.03110307641327381, 0.19792000949382782, -0.00038570602191612124, 0.15546366572380066, 0.22355873882770538], [-0.018548771739006042, 0.10475620627403259, -0.11417989432811737, -0.08227875083684921, 0.08780929446220398, -0.055405307561159134, -0.033509261906147, -0.09856536984443665, 0.0914008840918541, 0.05478717386722565, 0.02160395123064518, -0.08914760500192642, -0.14440415799617767, -0.01298466045409441, 0.011665252968668938, -0.09326305240392685, -0.06934801489114761, 0.06602952629327774, 0.014514184556901455, -0.025906899943947792, -0.04077163711190224, -0.162719264626503, -0.14823123812675476, -0.11094699054956436, -0.09201008826494217, 0.017464151605963707, -0.08126238733530045, -0.07189275324344635, 0.10125736147165298, 0.01433870755136013, 0.06129326671361923, -0.10438232123851776, -0.05895710363984108, 0.13302452862262726, -0.016191894188523293, -0.014377091079950333, 0.07300569117069244, 0.027184372767806053, -0.02822626754641533, 0.16559293866157532, 0.1960488110780716, 0.10339277237653732, 0.0548466220498085, -0.053718168288469315, 0.02740461565554142, 0.11672423779964447, 0.14803755283355713, 0.06173112243413925], [-0.09235093742609024, 0.045969221740961075, -0.14578227698802948, 0.07091011852025986, -0.09707076847553253, -0.036721371114254, -0.06984509527683258, -0.011179478839039803, -0.08611886948347092, 0.06600414216518402, -0.04109476879239082, 0.08492573350667953, 0.10295422375202179, -0.11476662009954453, -0.14739041030406952, 0.07953216880559921, 0.07755084335803986, -0.14483043551445007, -0.04214774817228317, -0.16304340958595276, -0.15930324792861938, -0.011136190965771675, -0.0029712205287069082, 0.0017825195100158453, -0.08187244087457657, 0.09413452446460724, -0.0167715921998024, -0.11305852979421616, -0.04418480023741722, -0.009849327616393566, 0.008354638703167439, -0.13845229148864746, 0.05409621819853783, -0.11352915316820145, -0.15970610082149506, -0.11860179901123047, 0.09944017231464386, 0.08362980931997299, 0.08949499577283859, 0.04497170075774193, 0.0692843422293663, -0.05907426401972771, -0.11917292326688766, 0.03236529603600502, -0.11454696953296661, -0.13716194033622742, -0.08584506809711456, -0.009462423622608185], [-0.005056819412857294, -0.13730356097221375, -0.10802117735147476, -0.041056811809539795, -0.11187580972909927, -0.14555424451828003, 0.0430208183825016, -0.06374496966600418, 0.1003292128443718, 0.10543282330036163, -0.006816391367465258, 0.013804132118821144, -0.027512753382325172, -0.04339899867773056, -0.06775211542844772, -0.059004656970500946, -0.034619394689798355, 0.04778984934091568, -0.06684988737106323, -0.1269267052412033, -0.0711497813463211, -0.12964662909507751, -0.016702260822057724, 0.06435394287109375, 0.07017794996500015, 0.019162476062774658, -0.17155762016773224, -0.1209992840886116, -0.10170536488294601, -0.07997535914182663, -0.055990952998399734, -0.2015906274318695, 0.044924307614564896, -0.04214826971292496, -0.023363586515188217, -0.0520334355533123, 0.1937304586172104, -0.068712018430233, 0.17685040831565857, 0.06311480700969696, 0.05118080601096153, 0.15824764966964722, 0.054626427590847015, 0.15848946571350098, 0.17232564091682434, -0.05734804645180702, 0.1235060915350914, 0.09521514922380447], [0.03103426657617092, 0.02107204869389534, 0.039480794221162796, -0.06943601369857788, -0.018466711044311523, 0.1371380090713501, 0.09697312116622925, -0.005422538612037897, -0.13575394451618195, 0.006325993686914444, -0.09829006344079971, 0.11737408488988876, -0.08762551099061966, -0.010421404615044594, -0.03203466534614563, 0.025685423985123634, 0.13582563400268555, 0.013714843429625034, 0.08359512686729431, 0.11203794181346893, 0.1165253296494484, -0.04984718933701515, -0.03228205814957619, 0.06956171989440918, -0.03938505798578262, 0.06758808344602585, -0.031533095985651016, -0.09789729118347168, 0.05875164270401001, 0.02212955430150032, 0.06435266137123108, 0.14339736104011536, 0.09854400902986526, 0.13682928681373596, 0.0077253542840480804, -0.12416099011898041, -0.10125673562288284, -0.0896587073802948, -0.1271972358226776, -0.07234884798526764, -0.13287250697612762, -0.1331680417060852, -0.08624956756830215, -0.14229285717010498, -0.08859619498252869, 0.05503716692328453, 0.12038514763116837, -0.04293505847454071], [-0.04198473319411278, 0.07706952095031738, -0.07121195644140244, -0.06824749708175659, 0.0889306366443634, -0.12576155364513397, 0.017648840323090553, 0.12750519812107086, 0.024751942604780197, 0.03925170749425888, -0.0840609222650528, -0.0019913630094379187, 0.007936321198940277, 0.03542538732290268, 0.05608178302645683, 0.12541893124580383, -0.11017278581857681, 0.004326561000198126, -0.07211628556251526, -0.11418023705482483, -0.011558212339878082, -0.1270512491464615, 0.10073307156562805, 0.016716426238417625, -0.07779189199209213, 0.07542779296636581, -0.13660509884357452, -0.05582965537905693, -0.028119660913944244, -0.1226508840918541, -0.0917825773358345, -0.02355857752263546, 0.10951823741197586, 0.13938018679618835, 0.09183656424283981, -0.08618742227554321, -0.09442868828773499, 0.12596240639686584, 0.05105471611022949, 0.0038347167428582907, 0.019533507525920868, -0.11600363254547119, -0.048192210495471954, 0.1389419585466385, -0.03559829294681549, -0.007240564562380314, -0.11984796822071075, -0.0807434618473053], [-0.0029473151080310345, -0.08995972573757172, -0.024438288062810898, 0.05596575513482094, -0.14646868407726288, 0.04295079782605171, -0.10377902537584305, -0.046700574457645416, 0.08879019320011139, 0.11647597700357437, -0.04978169500827789, -0.08203265070915222, -0.1305152028799057, -0.07442877441644669, -0.13131095468997955, -0.025258291512727737, 0.029452864080667496, -0.1356598436832428, 0.11938229948282242, 0.08708784729242325, -0.1460590362548828, -0.0690828189253807, 0.038665302097797394, -0.024604490026831627, -0.00596109451726079, -0.07397004216909409, 0.10691430419683456, -0.09510558098554611, 0.11969579011201859, 0.009312986396253109, 0.023993033915758133, 0.11360041052103043, -0.02378186583518982, -0.09558545053005219, -0.03693545237183571, 0.10341129451990128, -0.12078280001878738, 0.019056353718042374, -0.1555720716714859, 0.061948928982019424, 0.039593517780303955, -0.007621191442012787, 0.04820440337061882, -0.013585509732365608, 0.06611879914999008, -0.12801378965377808, -0.0349518284201622, 0.05027291551232338], [0.10420453548431396, 0.024401843547821045, -0.09993114322423935, 0.07845045626163483, -0.026947231963276863, -0.05933108180761337, -0.14018920063972473, -0.04130764305591583, 0.09977269172668457, 0.00751222250983119, -0.11063940078020096, 0.033452440053224564, -0.08382567763328552, 0.10169287025928497, -0.1612165868282318, -0.08067195117473602, -0.18824811279773712, -0.11126069724559784, 0.04410070925951004, 0.10081594437360764, 0.01983470283448696, 0.1043827161192894, 0.009988639503717422, 0.060843948274850845, 0.1020219624042511, 0.09564441442489624, -0.12309587746858597, 0.11382849514484406, 0.040302179753780365, -0.10547269135713577, -0.11589352041482925, -0.16452555358409882, 0.03624853864312172, -0.022962301969528198, 0.15500394999980927, 0.13961414992809296, -0.031367577612400055, 0.13336575031280518, 0.08229454606771469, 0.1599702090024948, 0.1768537014722824, -0.049458734691143036, 0.22640620172023773, 0.2150818407535553, 0.15146364271640778, -0.03788510337471962, 0.04247376322746277, 0.05220377445220947], [-0.048097413033246994, 0.06833215802907944, 0.038778141140937805, 0.10456937551498413, -0.06480156630277634, 0.04057560861110687, 0.04148882254958153, -0.13205638527870178, -0.14987140893936157, -0.08405155688524246, 0.09007143974304199, -0.15056045353412628, -0.1299886256456375, 0.06928031891584396, 0.06527223438024521, 0.10812905430793762, -0.11987266689538956, -0.11866333335638046, 0.060319673269987106, 0.11579567939043045, 0.07562922686338425, 0.01460662204772234, 0.03766047582030296, 0.12512804567813873, -0.10298600792884827, -0.0746878981590271, 0.09213105589151382, -0.11336357891559601, -0.08390036970376968, 0.09382963925600052, 0.03287370875477791, 0.036059144884347916, -0.06117609143257141, -0.012299171648919582, 0.12177713960409164, -0.0969657301902771, -0.009199703112244606, 0.05831059068441391, -0.10998182743787766, 0.12983892858028412, -0.08245152980089188, -0.04500020667910576, -0.049393415451049805, -0.10439908504486084, -0.1519739031791687, 0.0710441917181015, 0.028005722910165787, -0.14552775025367737], [-0.10778502374887466, 0.1268816888332367, 0.03939628228545189, 0.042092133313417435, -0.10110457241535187, -0.07835586369037628, -0.03681619465351105, -0.04138323664665222, -0.11359300464391708, -0.0033086470793932676, -0.0009736602660268545, -0.03364744409918785, 0.004936127457767725, -0.07246540486812592, 0.022427618503570557, 0.03917807340621948, -0.0909133106470108, -0.1588984876871109, 0.05977706238627434, 0.018608352169394493, -0.08815601468086243, 0.12401969730854034, -0.08030419796705246, 0.08254887908697128, 0.05854080989956856, -0.13621242344379425, 0.07777045667171478, -0.14808426797389984, -0.09503869712352753, -0.039320435374975204, -0.11242693662643433, 0.12574909627437592, -0.02895117737352848, 0.04154926538467407, -0.144661083817482, 0.06731002032756805, -0.060638073831796646, -0.12557381391525269, 0.005325141828507185, 0.05414570868015289, 0.10912897437810898, -0.10394065827131271, -0.08680947124958038, 0.011970413848757744, 0.02337285690009594, 0.03971346467733383, 0.06344297528266907, -0.04850940406322479], [0.0506904274225235, 0.06666617095470428, -0.005407484248280525, 0.06394609808921814, 0.09987813234329224, 0.1277635246515274, -0.05576159060001373, -0.09646852314472198, -0.03246498480439186, 0.0050537316128611565, 0.07340836524963379, -0.08740384876728058, 0.054767757654190063, -0.041604917496442795, 0.06335613876581192, -0.01264187041670084, -0.1630358099937439, -0.12317359447479248, -0.07770007848739624, 0.028323547914624214, -0.07490058243274689, -0.018042802810668945, 0.050018779933452606, -0.10732365399599075, 0.04193565994501114, -0.15270641446113586, -0.12873828411102295, -0.14158065617084503, -0.06857786327600479, -0.048581115901470184, -0.011018823832273483, -0.038924697786569595, 0.0678505003452301, 0.22620344161987305, 0.14566434919834137, 0.037013761699199677, -0.041277214884757996, 0.1461574286222458, 0.02236551232635975, 0.16732914745807648, 0.19036677479743958, 0.1495528221130371, 0.22931276261806488, 0.23097068071365356, 0.12444079667329788, -0.011290675029158592, 0.22283659875392914, 0.02539149671792984], [-0.14877641201019287, -0.00785994902253151, 0.12947916984558105, 0.007004537153989077, -0.028026342391967773, -0.1880422979593277, -0.06576249748468399, 0.06522396206855774, -0.013774077408015728, -0.044163480401039124, -0.08123006671667099, -0.09402534365653992, 0.026299407705664635, 0.0015270875301212072, 0.0658215880393982, -0.14891484379768372, -0.021768368780612946, -0.07127899676561356, 0.03716959431767464, 0.05139981955289841, 0.04898373410105705, 0.06331019103527069, 0.05597683787345886, -0.11148470640182495, -0.17841100692749023, -0.035996243357658386, -0.05972564220428467, -0.08403663337230682, -0.08859418332576752, -0.00409776670858264, 0.07282931357622147, -0.08157889544963837, -0.05125344917178154, -0.0633382573723793, -0.03972576558589935, -0.0597701370716095, 0.12580831348896027, 0.07246459275484085, 0.12635017931461334, -0.0035222198348492384, 0.025125589221715927, 0.04606792703270912, -0.14060616493225098, 0.008905622176826, -0.013637883588671684, -0.08490654826164246, -0.11598154157400131, 0.12379554659128189], [0.09193187206983566, 0.04135541617870331, 0.1122027188539505, -0.08338746428489685, -0.05023081228137016, 0.02919629029929638, -0.04919665679335594, -0.05346071720123291, -0.14448785781860352, 0.013415305875241756, -0.11274850368499756, -0.019987279549241066, 0.11558394879102707, -0.0697994977235794, -0.07072039693593979, 0.06286153942346573, -0.07683708518743515, -0.0372244268655777, 0.11003068089485168, -0.07850352674722672, -0.12599292397499084, -0.10480005294084549, -0.06314112991094589, -0.08996319025754929, -0.09672717750072479, 0.03506023809313774, -0.00012166082160547376, -0.06842149049043655, -0.13364927470684052, -0.06875425577163696, -0.08306407183408737, -0.06319452822208405, -0.13021023571491241, 0.006423878949135542, -0.13118551671504974, -0.13770681619644165, -0.1433059275150299, 0.03481820598244667, -0.11235354840755463, -0.08505713194608688, 0.08763851970434189, 0.051125332713127136, 0.05723825842142105, -0.1625819057226181, -0.12904441356658936, -0.0800352618098259, 0.09368522465229034, -0.01079058088362217], [-0.1079496517777443, 0.0009038166608661413, -0.11210277676582336, -0.03162425756454468, -0.03968923166394234, 0.12494748830795288, 0.04470664635300636, -0.02516830340027809, 0.024382762610912323, -0.04166527837514877, 0.05671028047800064, 0.057094722986221313, 0.03876129165291786, -0.05625945329666138, 0.12314169853925705, -0.02083800919353962, -0.056193020194768906, 0.09040064364671707, 0.11764329671859741, 0.14363893866539001, 0.04276120662689209, -0.049203790724277496, 0.07330789417028427, 0.12383506447076797, -0.14157120883464813, -0.017881538718938828, -0.0984332337975502, 0.026898713782429695, 0.05969582870602608, -0.029818395152688026, -0.012074868194758892, 0.06496789306402206, -0.024258773773908615, -0.12121172994375229, 0.11548967659473419, -0.07264719158411026, -0.015856709331274033, 0.013614839874207973, -0.00867423415184021, -0.1357763260602951, 0.06622207164764404, -0.0655626654624939, -0.07486206293106079, 0.03448447212576866, -0.07532429695129395, -0.06670699268579483, -0.04863453283905983, -0.05422438681125641], [-0.1078999936580658, -0.08316561579704285, 0.03531371429562569, -0.1685410737991333, -0.08290712535381317, -0.026719678193330765, 0.010492338798940182, 0.05039070174098015, -0.10729154199361801, 0.028386633843183517, 0.04612158611416817, 0.06324844062328339, -0.16896763443946838, -0.09155108034610748, -0.17193976044654846, -0.11171663552522659, 0.02378253825008869, -0.07089491188526154, 0.05273677036166191, -0.1418282836675644, 0.017193708568811417, -0.12431174516677856, 0.05371503531932831, -0.09622377902269363, -0.052885230630636215, -0.1546933799982071, -0.050389863550662994, 0.11263735592365265, 0.02653379738330841, -0.12094239145517349, -0.056180763989686966, -0.044283658266067505, -0.1162024512887001, 0.20208129286766052, 0.09123697876930237, 0.11930802464485168, 0.030623668804764748, 0.021373314782977104, 0.112711600959301, 0.14227533340454102, 0.12128649652004242, 0.01934930495917797, 0.22904914617538452, 0.06766501069068909, 0.0005177217535674572, 0.021403761580586433, 0.23100139200687408, 0.08891916275024414], [-0.029707543551921844, -0.06913963705301285, -0.013362771831452847, -0.12588800489902496, -0.0996067225933075, 0.07016431540250778, 0.131564199924469, 0.1193082183599472, -0.0953088253736496, 0.08034898340702057, -0.097770094871521, 0.09540072828531265, 0.0933661088347435, 0.09531055390834808, 0.08941452950239182, 0.06970112770795822, -0.016246149316430092, 0.05205552279949188, -0.033134110271930695, 0.053005073219537735, -0.040677912533283234, -0.025290172547101974, -0.1264934539794922, -0.05997168645262718, -0.07811922580003738, -0.058576375246047974, -0.11600495874881744, -0.12840110063552856, -0.010982634499669075, 0.06953565031290054, 0.1056794673204422, 0.05529935285449028, -0.07481555640697479, -0.04002514109015465, 0.15747657418251038, 0.18360255658626556, -0.021186938509345055, 0.15448573231697083, 0.22476276755332947, 0.11147274076938629, 0.015771783888339996, 0.2210676521062851, 0.16436368227005005, 0.19830915331840515, 0.005116012878715992, 0.1867256760597229, 0.0041362205520272255, 0.24555008113384247], [-0.08572639524936676, 0.06730443239212036, 0.0035953784827142954, 0.009002653881907463, -0.048161786049604416, 0.03542333468794823, -0.08713161200284958, -0.16331076622009277, -0.0842464491724968, 0.08756325393915176, -0.06436587870121002, 0.02202969789505005, -0.07560456544160843, 0.08742955327033997, 0.06215495988726616, 0.032529618591070175, -0.09912043064832687, -0.13792946934700012, -0.020565619692206383, -0.11775834113359451, 0.09200980514287949, -0.16282235085964203, 0.03634249046444893, 0.11516572535037994, 0.04280969500541687, 0.023533938452601433, -0.1656118929386139, 0.11515522003173828, -0.04701332375407219, -0.15580834448337555, 0.1180049404501915, -0.07734666764736176, -0.010211538523435593, 0.10710862278938293, -0.12494689226150513, -0.12697137892246246, -0.0013630230678245425, -0.04414328560233116, 0.008431683294475079, -0.145866259932518, -0.020488791167736053, -0.08899768441915512, -0.09575707465410233, -0.15695805847644806, 0.05173487588763237, 0.003010669955983758, -0.1468217372894287, 0.08974777907133102], [0.04353521764278412, 0.026783742010593414, -0.08474583923816681, 0.02176675759255886, 0.13907504081726074, 0.09899889677762985, -0.1124202311038971, 0.13175438344478607, 0.011187570169568062, 0.06942133605480194, 0.11210356652736664, 0.12304909527301788, -0.11251615732908249, 0.1263911873102188, -0.0980304479598999, 0.01082042045891285, -0.10085783898830414, -0.031643595546483994, -0.006559088826179504, -0.017267873510718346, -0.02280185930430889, 0.011383980512619019, 0.14237727224826813, 0.08386179059743881, 0.08075252920389175, 0.0577707439661026, 0.11174342036247253, -0.006661036517471075, 0.011476602405309677, 0.029704248532652855, -0.12588119506835938, -0.11627212166786194, 0.017695985734462738, -0.05647210776805878, -0.0026485605631023645, -0.033119525760412216, 0.02246798574924469, 0.09390826523303986, -0.047868385910987854, 0.1155942752957344, 0.11396341770887375, -0.11077880859375, -0.11146125197410583, -0.11677990108728409, -0.07909990847110748, -0.056187186390161514, -0.010864210315048695, -0.035101767629384995], [-0.11529702693223953, -0.07020324468612671, -0.07440675050020218, 0.06368239969015121, -0.0627012550830841, -0.13781209290027618, 0.039973143488168716, -0.05621112510561943, 0.08103536069393158, 0.05849960073828697, 0.08383702486753464, -0.13781315088272095, 0.045701123774051666, 0.06431753933429718, -0.1473618894815445, 0.12135431915521622, 0.05827903002500534, -0.02729063481092453, 0.04188428819179535, -0.13306675851345062, -0.14297547936439514, -0.005082213785499334, 0.015313828364014626, -0.1455046832561493, 0.0313933901488781, -0.16512174904346466, 0.06258061528205872, 0.10095097869634628, -0.015372886322438717, -0.15378601849079132, -0.01470138505101204, 0.006093727890402079, 0.03924809396266937, 0.10342661291360855, 0.1658840775489807, -0.00604888703674078, 0.023524783551692963, 0.0953548327088356, 0.07172024250030518, 0.17238390445709229, -0.01981823891401291, 0.05073718726634979, 0.08296330273151398, 0.017659032717347145, 0.15439081192016602, 0.07178119570016861, -0.07740798592567444, 0.04035664349794388], [-0.15310713648796082, -0.053734343498945236, -0.06117916852235794, -0.2628438174724579, -0.07048037648200989, -0.08663644641637802, -0.09111351519823074, 0.05818489193916321, -0.08542666584253311, 0.01962350681424141, -0.0559380017220974, -0.21083113551139832, -0.07675076276063919, 0.011699480004608631, -0.18983818590641022, -0.16442953050136566, 0.044367220252752304, 0.04290708154439926, -0.13135281205177307, -0.038693156093358994, -0.07229423522949219, -0.2237343192100525, -0.04685765877366066, -0.0317692905664444, -0.10858974605798721, -0.035059764981269836, -0.23052871227264404, 0.0030102685559540987, 0.0028362786397337914, -0.036009617149829865, -0.08201415836811066, -0.03228479251265526, -0.10443513095378876, -0.019182147458195686, 0.003106163116171956, -0.06343553960323334, -0.08972387760877609, 0.11397068202495575, 0.11484090983867645, -0.11419868469238281, 0.06281673163175583, 0.0756041631102562, 0.15400317311286926, 0.10039451718330383, 0.14958177506923676, -0.03036748804152012, 0.1179795116186142, 0.13429191708564758], [-0.30044877529144287, -0.19736088812351227, -0.036364004015922546, 0.012535950168967247, -0.16705550253391266, -0.07120992243289948, -0.06693471968173981, -0.004690366331487894, -0.16266371309757233, 0.04064776748418808, 0.0069320714101195335, -0.16141802072525024, -0.11406749486923218, -0.07937822490930557, -0.05094735696911812, 0.04879164323210716, -0.13391809165477753, -0.12054741382598877, 0.05648162588477135, -0.1274355798959732, -0.14895157516002655, -0.0870262011885643, -0.18715737760066986, -0.03021939843893051, -0.19635429978370667, -0.040235575288534164, -0.0931820347905159, -0.05027979984879494, -0.2481762170791626, -0.2257857620716095, -0.04333685338497162, 0.028850888833403587, -0.12808117270469666, 0.10191114246845245, -0.057797178626060486, 0.05750294029712677, 0.18274059891700745, 0.15795283019542694, -0.057075515389442444, 0.13773930072784424, 0.12384544312953949, 0.04823419079184532, 0.18828032910823822, -0.008871371857821941, 0.014866330660879612, -0.02449401654303074, 0.06922567635774612, 0.08667463064193726], [0.011500846594572067, -0.08120966702699661, -0.06497593224048615, 0.049096785485744476, -0.12655898928642273, -0.022478343918919563, -0.0031973065342754126, -0.05848036706447601, 0.0525270476937294, 0.009303092956542969, 0.10133429616689682, -0.012818838469684124, -0.09109698235988617, 0.10198196768760681, 0.02015656791627407, -0.04133801534771919, -0.09513328969478607, 0.03383113071322441, -0.13766232132911682, 0.03801530972123146, 0.07136695086956024, -0.12661297619342804, -0.0944938212633133, -0.1037680059671402, 0.12131667137145996, 0.12270434945821762, 0.009035654366016388, 0.13550494611263275, -0.04825261980295181, -0.14012610912322998, 0.05041637644171715, 0.05113425850868225, 0.14150600135326385, -4.177708615316078e-05, 0.11061975359916687, 0.08847369998693466, 0.10446702688932419, -0.14323079586029053, 0.11885591596364975, -0.12304097414016724, 0.12940022349357605, -0.005981435999274254, -0.1279144138097763, 0.040139228105545044, -0.02937944419682026, -0.1296430379152298, -0.05232788249850273, 0.014881951734423637], [0.09253057837486267, -0.05632888153195381, 0.1099492609500885, 0.014962074346840382, 0.034857120364904404, 0.03176892548799515, -0.07409076392650604, -0.09122273325920105, -0.020857948809862137, -0.1103159487247467, -0.0634838119149208, 0.019714267924427986, -0.09853310137987137, -0.05340372025966644, -0.033004533499479294, -0.014944749884307384, -0.10830312222242355, -0.01001395657658577, -0.002108790446072817, 0.03305385261774063, 0.027671366930007935, -0.07574228942394257, -0.037611570209264755, 0.02330787479877472, -0.0759972557425499, 0.023982031270861626, -0.020857498049736023, 0.06167139112949371, 0.02198268286883831, 0.10708306729793549, -0.021848587319254875, -0.11268465220928192, 0.06452018767595291, 0.012552812695503235, 0.09026386588811874, 0.0633665919303894, 0.055335648357868195, 0.056701332330703735, 0.24273927509784698, 0.1927316039800644, 0.15010569989681244, 0.24563153088092804, -0.020697586238384247, 0.13339589536190033, 0.20250637829303741, 0.20598694682121277, -0.004767144098877907, 0.1614728718996048], [-0.08222708106040955, -0.005639820825308561, -0.03011895716190338, -0.12051674723625183, -0.13768568634986877, -0.09495938569307327, 0.06549613177776337, 0.06602512300014496, -0.12553958594799042, -0.05420485883951187, 0.0023576696403324604, -0.12479174137115479, 0.0813276544213295, 0.13073121011257172, 0.025527795776724815, -0.10724494606256485, 0.03365755081176758, 0.0523965023458004, 0.1142926961183548, -0.07679767906665802, -0.12931343913078308, 0.0634147971868515, 0.008985928259789944, -0.04702898859977722, -0.06048066169023514, -0.07442273199558258, 0.11684082448482513, -0.024903874844312668, 0.10409726202487946, 0.12884287536144257, 0.018284117802977562, 0.03074643947184086, -0.009830072522163391, 0.09913326054811478, -0.1300608366727829, 0.057400599122047424, -0.02351674996316433, 0.06590688228607178, -0.0006428819033317268, -0.0534433051943779, -0.015581236220896244, 0.07794124633073807, -0.10024674981832504, -0.09123565256595612, -0.03233109414577484, -0.05235477536916733, 0.056701451539993286, 0.09713482111692429], [-0.3182967007160187, -0.029935257509350777, -0.08119504153728485, -0.05699530988931656, -0.22975358366966248, -0.22899885475635529, -0.15428239107131958, -0.16754986345767975, -0.2691827714443207, -0.04744474217295647, 0.0414176806807518, 0.09664788842201233, -0.14481385052204132, -0.14645706117153168, -0.10250669717788696, -0.10686513781547546, -0.25337451696395874, -0.30918458104133606, 0.04226776584982872, 0.04537796229124069, -0.1287827342748642, -0.08434076607227325, -0.127533957362175, 0.08233537524938583, -0.08212926238775253, 0.0003040471929125488, -0.03941158577799797, 0.04636918008327484, -0.17657873034477234, -0.0775841549038887, -0.02889988385140896, -0.053393758833408356, 0.09490716457366943, 0.03832770138978958, 0.09190595149993896, 0.14563848078250885, 0.03773454576730728, -0.04852347820997238, -0.009312083944678307, 0.045683491975069046, 0.029384450986981392, -0.034381378442049026, 0.1181378960609436, 0.09176591038703918, -0.08460933715105057, -0.006714451592415571, -0.00880923680961132, -0.08541449159383774], [-0.14241059124469757, -0.1750987321138382, -0.17656390368938446, -0.1886032670736313, -0.1382576823234558, 0.10738833248615265, 0.06262505799531937, 0.17697206139564514, 0.015739619731903076, -0.00018069593352265656, 0.033447302877902985, -0.0029774801805615425, -0.34985366463661194, -0.25049424171447754, -0.11687229573726654, 0.045989442616701126, -0.11675950139760971, -0.07984480261802673, 0.006955016404390335, -0.11760890483856201, -0.14348311722278595, -0.14562472701072693, -0.10559748113155365, -0.055530041456222534, 0.011328307911753654, 0.03543476387858391, 0.08819999545812607, -0.08085989952087402, -0.2532222867012024, -0.21415217220783234, -0.09008781611919403, 0.08345763385295868, -0.003171307733282447, 0.04170813038945198, 0.053314391523599625, 0.08878333121538162, -0.008762376382946968, -0.05103793740272522, 0.06908325850963593, 0.017940033227205276, -0.030358409509062767, 0.09564661234617233, 0.036339759826660156, 0.014034713618457317, -0.03484073281288147, 0.016040895134210587, -0.08770345151424408, 0.06786611676216125], [-0.07480788230895996, 0.0007737060659565032, -0.02986043505370617, -0.0730670690536499, 0.0002756199100986123, 0.030798813328146935, -0.12972906231880188, 0.006660263054072857, -0.016820358112454414, -0.16266019642353058, -0.026821060106158257, -0.13888844847679138, -0.12999151647090912, -0.1615903228521347, -0.18721142411231995, 0.041969265788793564, -0.21588987112045288, -0.020299557596445084, -0.17568057775497437, -0.10814414173364639, -0.04068547487258911, 0.014272954314947128, -0.1233433187007904, -0.042109228670597076, -0.04183972626924515, 0.005440738517791033, -0.08502807468175888, -0.006666227243840694, -0.18188929557800293, -0.20124633610248566, 0.027790889143943787, -0.18577615916728973, -0.0245719812810421, 0.03870788961648941, 0.19730214774608612, 0.02496541664004326, -0.053725577890872955, 0.019569948315620422, 0.13061149418354034, 0.11335916817188263, 0.17556828260421753, 0.02661150135099888, 0.12414911389350891, -0.07966776937246323, 0.11200959980487823, 0.12247762829065323, 0.1492694467306137, -0.02660924755036831], [-0.04070994630455971, 0.04344731941819191, -0.08059889078140259, -0.10290692746639252, -0.1102033406496048, 0.013883834704756737, 0.10684584826231003, 0.07039550691843033, 0.030718550086021423, 0.07815281301736832, -0.08207733929157257, 0.03207726031541824, -0.03575526177883148, -0.06777328252792358, 0.12107771635055542, -0.10598120838403702, 0.010569941252470016, -0.12325135618448257, 0.011367454193532467, -0.05723113566637039, 0.0675649419426918, -0.08293388783931732, 0.10126181691884995, -0.08752763271331787, 0.09851445257663727, -0.09179101139307022, 0.0717165544629097, -0.05134768784046173, -0.008857520297169685, -0.029976844787597656, 0.08010438084602356, 0.04537611082196236, -0.12719088792800903, 0.11560825258493423, 0.0027656322345137596, 0.2102404534816742, 0.1260543018579483, 0.06521862000226974, 0.028703024610877037, 0.15229922533035278, 0.015896383672952652, 0.17079372704029083, 0.1811012476682663, 0.1909344494342804, 0.1400463581085205, -0.02400851622223854, 0.20616434514522552, 0.05756302922964096], [-0.07907727360725403, -0.04048306122422218, 0.09553980082273483, 0.07641179114580154, 0.007773546036332846, 0.021115601062774658, -0.16452732682228088, -0.04762377217411995, -0.14245033264160156, 0.024239251390099525, -0.14242865145206451, -0.06781104952096939, 0.05790935084223747, 0.06991367042064667, -0.1407233476638794, -0.11950027942657471, -0.028685256838798523, 0.02588030882179737, -0.04002073034644127, -0.08569452911615372, -0.11977478861808777, 0.004279999993741512, 0.10161324590444565, -0.1221228837966919, 0.041111670434474945, 0.0321403332054615, 0.059452127665281296, -0.04162207990884781, -0.04886847734451294, 0.029601404443383217, 0.024616004899144173, 0.09387657046318054, -0.04136282578110695, 0.14797186851501465, 0.19165049493312836, -0.0071154567413032055, 0.11953712999820709, 0.05856778845191002, 0.18364723026752472, 0.02603810280561447, 0.10098743438720703, 0.17722293734550476, -0.04136569797992706, -0.031008802354335785, 0.016936901956796646, 0.18344463407993317, 0.18764637410640717, -0.007713914383202791], [0.005872378591448069, -0.09664277732372284, -0.03997454419732094, 0.09407634288072586, 0.09876247495412827, -0.03793457895517349, 0.042609941214323044, 0.02335163578391075, 0.04653898999094963, -0.04278147965669632, -0.0935586467385292, 0.09505317360162735, 0.005776906386017799, 0.06243760138750076, -0.07971005141735077, 0.06991193443536758, 0.07565278559923172, 0.06319548934698105, 0.06056996434926987, 0.10684581845998764, 0.020724209025502205, 0.025248751044273376, 0.15072043240070343, 0.13236920535564423, -0.05769236385822296, 0.12637749314308167, 0.03164738789200783, -0.023144148290157318, 0.10458400845527649, -0.07931334525346756, 0.059989046305418015, 0.13605287671089172, -0.09954992681741714, 0.012940715998411179, -0.04491100832819939, 0.0721404105424881, -0.03297216445207596, 0.049774300307035446, 0.14193624258041382, 0.2001451998949051, 0.17851735651493073, 0.17823535203933716, 0.15799668431282043, 0.008593428879976273, -0.016486693173646927, 0.10409951210021973, 0.2351769208908081, 0.10624322295188904], [-0.01372087374329567, -0.10242072492837906, -0.0783085972070694, -0.11593727767467499, 0.11311805993318558, -0.024778174236416817, -0.1338033229112625, 0.011131338775157928, 0.007883609272539616, -0.01912807486951351, 0.04923506826162338, 0.07035186141729355, -0.13902436196804047, -0.11461934447288513, -0.012605758383870125, -0.1344703882932663, -0.13178256154060364, 0.12345341593027115, -0.016986319795250893, -0.07555589079856873, -0.05126038193702698, -0.11316529661417007, 0.10756035894155502, -0.03516584634780884, -0.08305817097425461, -0.11000430583953857, 0.082919180393219, -0.025861725211143494, -0.01801217347383499, -0.041176553815603256, -0.07356401532888412, 0.02576576918363571, 0.11104905605316162, -0.09103251248598099, -0.0005249354289844632, -0.11723271012306213, -0.07515246421098709, 0.11921548843383789, -0.00597069226205349, 0.13155598938465118, -0.03277812898159027, -0.08616171032190323, -0.09373283386230469, 0.12043442577123642, -0.11848877370357513, 0.06825155019760132, 0.02838301658630371, 0.03509768843650818], [-0.004969924688339233, -0.12974318861961365, 0.04735048487782478, -0.18408548831939697, -0.10620351880788803, 0.02469363436102867, -0.015578032471239567, -0.10037308186292648, -0.09161069244146347, -0.15125560760498047, 0.011322730220854282, -0.06924325227737427, -0.08338786661624908, -0.03693355992436409, 0.03221486881375313, -0.17287088930606842, -0.14492787420749664, 0.0008109696209430695, 0.033606939017772675, -0.14549851417541504, -0.207405686378479, -0.06247904896736145, 0.008726603351533413, -0.05036776512861252, 0.03343706205487251, -0.18957945704460144, -0.01868007704615593, -0.16189780831336975, -0.0065873973071575165, 0.02870413474738598, -0.03919805586338043, 0.009601451456546783, -0.09514033049345016, -0.10026790201663971, -0.10995570570230484, 0.1194462701678276, 0.07938988506793976, -0.07686659693717957, 0.09872706234455109, 0.1605219691991806, -0.11350169777870178, 0.1335325837135315, 0.050964947789907455, 0.04225389286875725, 0.15870116651058197, 0.1595379114151001, 0.08964420109987259, 0.14287346601486206], [0.06004795432090759, 0.02351859025657177, -0.12687431275844574, 0.02695976197719574, -0.10268842428922653, 0.044436659663915634, 0.025466041639447212, 0.0032426451798528433, -0.09868744015693665, -0.0874970331788063, 0.1066853255033493, 0.07029514759778976, 0.07610050588846207, -0.04300925135612488, -0.02485438995063305, -0.03699049726128578, 0.09925998747348785, -0.062308769673109055, 0.09091315418481827, 0.09951984882354736, -0.1320047825574875, 0.0008814139291644096, -0.027489598840475082, -0.07979302853345871, 0.062313053756952286, -0.01753629371523857, 0.1263687163591385, -0.09034145623445511, 0.06706377118825912, -0.1232343539595604, -0.07234511524438858, 0.00984569638967514, 0.11404012888669968, 0.07602536678314209, -0.11851347237825394, 0.015987616032361984, -0.08508552610874176, 0.00625410582870245, -0.12024376541376114, -0.04234481230378151, 0.09899629652500153, -0.1324349343776703, -0.13761471211910248, 0.02629026211798191, 0.019786423072218895, -0.026397252455353737, 0.12603731453418732, -0.08690404891967773], [-0.08762448281049728, -0.10788887739181519, -0.026864472776651382, -0.03683565557003021, 0.08930841833353043, -0.008104410953819752, 0.04609471932053566, -0.05998043715953827, 0.1170855313539505, 0.12167927622795105, -0.1292642503976822, -0.03709469735622406, -0.12247004359960556, 0.061318475753068924, -0.12610530853271484, -0.06824450939893723, 0.14421811699867249, -0.1378307193517685, 0.10649290680885315, 0.012193506583571434, 0.11541732400655746, -0.07324977219104767, 0.0948050320148468, 0.017414867877960205, 0.011101349256932735, 0.09851503372192383, -0.13719677925109863, -0.11625687777996063, 0.13939593732357025, -0.08667420595884323, -0.10403962433338165, -0.007057333830744028, -0.04620280861854553, -0.019747089594602585, -0.09670408070087433, 0.052079714834690094, -0.12419982254505157, 0.011690323241055012, 0.08422666788101196, 0.027732448652386665, 0.019178109243512154, 0.021111400797963142, -0.042283762246370316, -0.02749605104327202, -0.06086618825793266, -0.0975041389465332, -0.07642041146755219, 0.14268642663955688], [-0.02415582910180092, 0.05056087300181389, 0.09981723129749298, -0.011275339871644974, -0.07764987647533417, -0.09779433161020279, -0.05317443609237671, 0.05151933804154396, -0.12155511230230331, -0.01762315072119236, 0.05490407347679138, 0.11775854229927063, 0.04343557730317116, 0.028545157983899117, 0.09881215542554855, 0.0666966363787651, 0.04883137717843056, -0.0447513647377491, -0.11574412882328033, -0.0311772171407938, -0.02617761306464672, 0.010599748231470585, -0.01587427780032158, 0.05835402011871338, 0.09591953456401825, -0.05851737782359123, -0.13695622980594635, -0.07405377924442291, -0.06906212121248245, 0.08181633055210114, -0.09310402721166611, -0.013575970195233822, -0.03059077262878418, -0.0876031294465065, 0.06542602926492691, -0.060124609619379044, -0.007466897368431091, -0.10148153454065323, -0.014557852409780025, 0.02050831727683544, -0.005873500369489193, -0.05393139645457268, 0.04288032650947571, -0.037397511303424835, -0.08002058416604996, -0.10643922537565231, -0.030574960634112358, -0.13635258376598358], [0.1198030561208725, -0.06895406544208527, -0.05981611832976341, 0.013342428021132946, 0.03741709515452385, -0.013609935529530048, 0.0990188717842102, -0.08414153009653091, 0.051727812737226486, -0.0003255274787079543, -0.1174144372344017, -0.05590119957923889, 0.03673205524682999, 0.027574511244893074, 0.10495295375585556, 0.09656082093715668, -0.07872499525547028, -0.06163639575242996, -0.030605535954236984, -0.1034063920378685, -0.038969676941633224, -0.11811328679323196, 0.05489765480160713, 0.10212739557027817, 0.01142813265323639, -0.10332846641540527, -0.10930799692869186, -0.05619049072265625, 0.04198106750845909, 0.003520683152601123, 0.02624373696744442, 0.13603545725345612, 0.06703642755746841, 0.031035833060741425, -0.029202649369835854, 0.0682787299156189, 0.05280453339219093, -0.12991857528686523, -0.08526149392127991, 0.004844800103455782, 0.05476778373122215, 0.07022064179182053, -0.08592106401920319, -0.1431993693113327, -0.00751877436414361, -0.016500281170010567, 0.04188387095928192, -0.03969375416636467], [0.08165837824344635, -0.02346876449882984, 0.11524209380149841, -0.11034967005252838, 0.06187715753912926, -0.004664988722652197, -0.0773235335946083, 0.06451611965894699, -0.1457601636648178, 0.11358565837144852, -0.00467232009395957, 0.0026202616281807423, 0.03579491004347801, -0.003505631349980831, 0.039450548589229584, 0.05177035182714462, -0.1501593291759491, 0.05736815929412842, -0.01768569089472294, -0.04863747954368591, 0.024107910692691803, 0.08292320370674133, -0.09232132136821747, -0.1080644354224205, 0.07508146017789841, -0.08266597986221313, 0.01527268998324871, -0.040134843438863754, -0.00035704029141925275, 0.0870550200343132, -0.10619077831506729, -0.11794687807559967, 0.07081500440835953, 0.09154127538204193, 0.06775470823049545, -0.043143901973962784, 0.2059321254491806, 0.07817506045103073, 0.05705602467060089, 0.02439219504594803, 0.05515804514288902, 0.1537935882806778, 0.08032465726137161, 0.20707911252975464, 0.07530851662158966, 0.0629352256655693, 0.1651119440793991, 0.07990726083517075], [-0.05354684591293335, 0.022615810856223106, 0.0873640850186348, 0.009559892117977142, 0.07603896409273148, 0.06904806941747665, 0.014608010649681091, 0.024888984858989716, 0.022274941205978394, -0.009527614340186119, 0.09738042950630188, 0.10592007637023926, 0.027454230934381485, -0.030617784708738327, 0.10441116988658905, -0.13608048856258392, 0.08135397732257843, 0.05092352628707886, 0.06629783660173416, -0.037503182888031006, -0.13209089636802673, 0.07856321334838867, -0.08924546837806702, 0.01270434632897377, 0.05754270404577255, -0.15932738780975342, -0.015749666839838028, -0.07852444797754288, 0.07858999818563461, -0.11525891721248627, 0.06271177530288696, 0.06627283990383148, 0.0796331837773323, 0.11352049559354782, -0.003186505753546953, -0.1558721512556076, 0.07799013704061508, -0.011833840981125832, -0.022183261811733246, -0.1625421792268753, -0.05748853459954262, -0.09510470181703568, 0.11631780862808228, 0.07772452384233475, 0.08262606710195541, 0.07379955798387527, -0.1145191490650177, -0.08703669160604477], [-0.2433597445487976, -0.07170261442661285, 0.04675275832414627, -0.0048851254396140575, 0.010794275440275669, -0.11718583106994629, -0.21344991028308868, -0.03415567800402641, 0.023753082379698753, 0.01795424520969391, -0.017181191593408585, -0.07574940472841263, -0.32156696915626526, -0.23772621154785156, -0.022147610783576965, -0.12327732145786285, -0.12577353417873383, 0.020375829190015793, -0.12576159834861755, 0.029127277433872223, -0.15993468463420868, -0.12357611954212189, -0.14797067642211914, -0.1328687071800232, -0.06458976119756699, -0.0397469699382782, -0.14867858588695526, 0.04745933413505554, -0.3247821033000946, -0.306433767080307, -0.19749440252780914, -0.12280535697937012, -0.016029857099056244, -0.04833480715751648, 0.045424338430166245, -0.14712660014629364, 0.0007997426437214017, -0.017954783514142036, 0.017669031396508217, 0.12302843481302261, 0.06837701797485352, -0.10037621855735779, -0.13873374462127686, -0.05540062114596367, -0.09285984188318253, 0.029961511492729187, -0.01913323625922203, 0.0956377312541008], [0.05669668689370155, -0.0265393927693367, 0.00496087409555912, 0.03456682339310646, -0.017910446971654892, 0.11647097766399384, -0.11285758018493652, 0.07035098224878311, -0.0920071005821228, -0.12645146250724792, -0.029632017016410828, 0.07033640891313553, 0.10198342800140381, 0.03622042387723923, -0.012474951334297657, -0.008091471157968044, -0.058511752635240555, -0.012952479533851147, -0.009972851723432541, 0.12282587587833405, 0.08447271585464478, -0.11550237238407135, 0.0005970785277895629, -0.08877768367528915, -0.022912271320819855, -0.11471489071846008, 0.03752215579152107, -0.10407865047454834, 0.14249306917190552, 0.10900409519672394, -0.09935604780912399, -0.13588860630989075, 0.005631716456264257, -0.04029207304120064, 0.042372703552246094, -0.09770413488149643, 0.05908331274986267, -0.12467148154973984, -0.07617704570293427, -0.07587850838899612, 0.06984370201826096, -0.0037789337802678347, -0.13871252536773682, -0.08243407309055328, -0.06679609417915344, -0.13392066955566406, 0.018481973558664322, 0.05143294483423233], [-0.0264827162027359, -0.057438384741544724, -0.0008753400761634111, -0.11464469134807587, -0.08788736164569855, -0.003291803877800703, 0.12822622060775757, -0.04438500478863716, 0.07154227793216705, -0.0568041056394577, -0.038422342389822006, -0.13740134239196777, 0.11958150565624237, 0.14054547250270844, -0.0030315574258565903, 0.0917077288031578, 0.11805970966815948, 0.0716950073838234, 0.07433663308620453, -0.13740800321102142, -0.1356297731399536, -0.11078490316867828, 0.04514671489596367, -0.1248486191034317, -0.11017930507659912, -0.0699608251452446, -0.13303381204605103, 0.0001944836985785514, 0.020823314785957336, -0.08446640521287918, 0.09450723975896835, -0.05479701608419418, -0.04063492640852928, 0.1099672019481659, 0.12392125278711319, -0.01655847206711769, -0.10361677408218384, -0.07240968942642212, 0.01837983727455139, 0.08460959792137146, 0.07185769081115723, -0.0637369304895401, -0.13645191490650177, -0.12631657719612122, -0.045921895653009415, 0.001810592832043767, -0.0648329108953476, -0.1141284629702568], [0.01521140243858099, -0.1145666092634201, -0.11084030568599701, -0.1173386424779892, -0.03911164775490761, 0.12748731672763824, 0.0564243420958519, -0.01711396314203739, 0.02970629557967186, 0.057476531714200974, 0.0008409445290453732, -0.1164189800620079, -0.08892819285392761, -0.0980561226606369, -0.0036650619003921747, -0.1321268528699875, -0.02624361589550972, -0.05278020352125168, 0.1416485756635666, 0.11732105910778046, 0.08383900672197342, 0.00809477549046278, -0.046732574701309204, 0.036816246807575226, -0.099727101624012, -0.061560552567243576, -0.02899531088769436, -0.033912792801856995, -0.13673129677772522, 0.05737866088747978, 0.11885939538478851, -0.07961276173591614, 0.038908541202545166, -0.01673944853246212, -0.005264343228191137, 0.008413437753915787, 0.125080406665802, 0.019339866936206818, -0.09131906926631927, -0.05192017927765846, 0.07051283866167068, 0.04504118859767914, 0.0028052935376763344, -0.019049232825636864, -0.0561584010720253, -0.0512293241918087, -0.0761360377073288, 0.023651406168937683], [0.0405360609292984, 0.11052577197551727, -0.0326077900826931, 0.010332946665585041, 0.09328384697437286, 0.06278549134731293, 0.0185456033796072, 0.04435184970498085, 0.007492052856832743, -0.12381158024072647, 0.005564370658248663, -0.03154915198683739, 0.1302519291639328, 0.13028308749198914, 0.028635216876864433, 0.12900936603546143, -0.07433658093214035, 0.12545441091060638, 0.12427250295877457, -0.005516726523637772, -0.11583225429058075, -0.046577200293540955, -0.038599807769060135, 0.0023841673973947763, -0.13086383044719696, 0.02674943208694458, -0.060028787702322006, -0.03695635870099068, -0.07454923540353775, -0.03047456033527851, -0.1340499222278595, -0.07652314752340317, 0.013297089375555515, 0.09458093345165253, 0.13116644322872162, -0.10918495059013367, 0.06061039865016937, -0.08136247843503952, -0.11159560084342957, -0.006355950143188238, -0.08279876410961151, -0.124310202896595, -0.13488872349262238, -0.0966121107339859, 0.11860733479261398, 0.08049821853637695, -0.057135604321956635, -0.09660811722278595], [-0.1634473204612732, -0.144497349858284, -0.12706449627876282, 0.013651232235133648, 0.016775280237197876, -0.10240033268928528, 0.06911078095436096, -0.11906415969133377, -0.1412907838821411, -0.01091410405933857, -0.11793739348649979, -0.0001644025614950806, 0.0675811916589737, -0.11388251930475235, -0.1323881894350052, 0.024672996252775192, -0.18230542540550232, 0.06983868032693863, -0.13551828265190125, -0.0025118684861809015, -0.14517280459403992, -0.1443762183189392, -0.014344556257128716, 0.022042423486709595, 0.08824726939201355, 0.07838767766952515, -0.046656422317028046, -0.05960449203848839, -0.03043888323009014, -0.07894627004861832, -0.02663934975862503, -0.16623301804065704, -0.11848778277635574, 0.08539638668298721, -0.09786038845777512, 0.10014697164297104, 0.0023225946351885796, 0.02164066582918167, 0.11766725778579712, -0.09379739314317703, -0.036303091794252396, 0.012053790502250195, 0.03579332306981087, -0.15398944914340973, 0.03778178244829178, -0.09863819181919098, 0.005440083798021078, 0.08413278311491013], [-0.03729367256164551, -0.05162253603339195, -0.07743719220161438, 0.1561603844165802, 0.054105546325445175, -0.027363039553165436, -0.13826273381710052, -0.09782237559556961, 0.04565856605768204, 0.0814923420548439, 0.06139806658029556, -0.1676013469696045, 0.10505657643079758, 0.023924127221107483, 0.14001716673374176, 0.12986299395561218, -0.008899174630641937, -0.10711192339658737, 0.06916403025388718, -0.039392296224832535, 0.06491260975599289, -0.19104833900928497, -0.0970311239361763, -0.14568983018398285, -0.1350998729467392, 0.037336353212594986, -0.12715718150138855, -0.18055976927280426, 0.0949350893497467, 0.11399801075458527, 0.03104773908853531, -0.09747157245874405, -0.038240280002355576, -0.06898954510688782, 0.06688070297241211, -0.06947360187768936, -0.06383515894412994, -0.12457898259162903, -0.09024558216333389, 0.05588678643107414, 0.07072973251342773, -0.0012945357011631131, -0.07642021775245667, 0.11636948585510254, 0.006224056705832481, -0.07797911018133163, -0.07229234278202057, -0.04246552661061287], [0.040897857397794724, 0.02587597630918026, 0.11806348711252213, -0.010804499499499798, 0.13094480335712433, -0.07741143554449081, -0.06869298964738846, -0.043580714613199234, -0.12592804431915283, -0.08454249799251556, -0.13614872097969055, -0.004294592421501875, -0.015445125289261341, -0.052631061524152756, -0.11137862503528595, 0.10105277597904205, -0.08520429581403732, 0.03627520799636841, 0.10752417147159576, -0.10486938804388046, -0.01647537387907505, 0.05564442276954651, 0.12824122607707977, -0.012700880877673626, 0.10231892019510269, -0.11607271432876587, -0.11567854136228561, 0.11452563107013702, -0.040444981306791306, 0.11914186924695969, -0.014066427946090698, -0.09845087677240372, 0.1370796263217926, 0.23489777743816376, 0.12207439541816711, 0.021181674674153328, 0.10243061929941177, 0.03926597163081169, 0.21385635435581207, 0.11536657065153122, 0.1390669345855713, 0.19621601700782776, 0.15649156272411346, 0.018575720489025116, 0.2285853773355484, 0.1973535567522049, 0.019576098769903183, 0.2178145796060562], [0.022230440750718117, -0.04298068955540657, -0.11814382672309875, 0.008184386417269707, -0.15461969375610352, 0.04586366191506386, 0.07448185235261917, -0.017380384728312492, 0.12438306957483292, -0.0490151047706604, 0.015373670496046543, -0.1009308323264122, -0.0369967557489872, 0.026630721986293793, 0.05381334200501442, -0.047731559723615646, -0.10068533569574356, 0.0808786004781723, 0.07498691231012344, 0.0500093474984169, -0.08883234113454819, -0.014459239318966866, -0.03870187699794769, 0.15189918875694275, 0.0010300979483872652, 0.0031774165108799934, -0.015097128227353096, 0.0680248886346817, -0.0423298217356205, 0.08382903039455414, 0.054904211312532425, -0.16024060547351837, -1.6518123402420315e-06, -0.051983077079057693, -0.040289897471666336, 0.09857819974422455, 0.10296988487243652, 0.05790352448821068, 0.20772196352481842, -0.007004704792052507, 0.010045246221125126, 0.04742027074098587, 0.0714106336236, 0.058309704065322876, 0.2004949450492859, 0.009574759751558304, -0.004964012652635574, 0.08294127881526947], [0.08286647498607635, 0.01432875171303749, 0.07206405699253082, 0.023175561800599098, 0.11751003563404083, 0.058069776743650436, 0.09031350165605545, -0.030618658289313316, -0.12284491211175919, -0.06836074590682983, 0.033791374415159225, 0.10082551091909409, -0.07702463120222092, 0.08884995430707932, 0.002505318960174918, -0.031563181430101395, -0.029081394895911217, -0.05082041770219803, 0.12346145510673523, -0.003969615790992975, 0.0734296590089798, -0.1591232866048813, -0.09645752608776093, 0.0010634750360623002, 0.100702665746212, 0.056382253766059875, -0.0035775681026279926, -0.1512184590101242, -0.027641544118523598, -0.13388465344905853, -0.1531042903661728, -0.020872104912996292, -0.09132314473390579, 0.21633663773536682, 0.006879158318042755, 0.13184882700443268, 0.17005500197410583, -0.026850998401641846, 0.15920330584049225, 0.06600753217935562, 0.16012468934059143, 0.22501513361930847, 0.023822253569960594, 0.022820759564638138, 0.20001797378063202, 0.10138431191444397, 0.07093877345323563, 0.19483909010887146], [-0.06973583251237869, -0.007126830518245697, 0.09914198517799377, 0.056408703327178955, -0.09335967898368835, 0.03751572221517563, -0.11004826426506042, -0.07838589698076248, 0.09281075745820999, -0.038467731326818466, -0.07351936399936676, 0.01023098174482584, 0.035271819680929184, -0.0897226631641388, -0.09733596444129944, -0.1397864818572998, 0.03729444742202759, -0.09313084930181503, 0.010999727994203568, -0.032282281666994095, -0.09437655657529831, -0.04605794697999954, -0.11095084249973297, -0.07640261948108673, -0.00449917558580637, -0.1233963668346405, -0.1265888512134552, 0.10811757296323776, 0.013581889681518078, -0.06383384019136429, -0.004799031186848879, 0.10703570395708084, -0.12041586637496948, -0.07652540504932404, -0.10437633842229843, -0.01049348246306181, -0.004967068322002888, -0.11248310655355453, 0.10018238425254822, -0.11083967238664627, 0.13475871086120605, -0.09935750812292099, -0.01978081464767456, 0.02698923647403717, -0.06415478885173798, 0.1327388882637024, -0.09951126575469971, -0.008000398054718971], [-0.12304231524467468, 0.03253883495926857, 0.12763379514217377, 0.1328733265399933, 0.02418198250234127, -0.08767855912446976, 0.13747017085552216, 0.01595482788980007, 0.1047665923833847, -0.06276620179414749, -0.07343365252017975, -0.11153200268745422, 0.11910839378833771, 0.0029781816992908716, -0.1181156188249588, -0.004952689632773399, -0.08820588886737823, -0.005741995759308338, 0.04643421247601509, -0.07811418175697327, 0.022754598408937454, -0.11520160734653473, 0.015905998647212982, -0.13821099698543549, 0.01895890198647976, 0.1432115137577057, 0.11085191369056702, 0.05275716260075569, 0.08291052281856537, 0.11136998981237411, 0.014937009662389755, 0.022351045161485672, 0.018768804147839546, 0.2252400666475296, 0.22144712507724762, 0.02957940101623535, 0.09152231365442276, 0.02473261021077633, 0.149248868227005, -0.042405854910612106, 0.14853261411190033, 0.05784321948885918, 0.14980076253414154, 0.14250504970550537, 0.025631405413150787, 0.17234085500240326, 0.1587495058774948, -0.025236420333385468], [0.10143444687128067, 0.12202721834182739, 0.0664253681898117, -0.00953122042119503, 0.011139383539557457, -0.11277401447296143, -0.10283659398555756, 0.06950440257787704, 0.016225798055529594, 0.04266202449798584, -0.19008584320545197, 0.14534465968608856, -0.04882827773690224, 0.13306257128715515, 0.11763952672481537, 0.09951392561197281, 0.10150942951440811, 0.08090410381555557, 0.06161507964134216, -0.04311642423272133, 0.09423431754112244, 0.0034184549003839493, 0.03173302486538887, -0.030601000413298607, 0.05691040679812431, 0.113740473985672, -0.16281302273273468, 0.144556924700737, -0.08368749171495438, -0.0907503217458725, -0.12155378609895706, 0.08841840922832489, -0.10837258398532867, -0.08507561683654785, -0.10343222320079803, 0.007654942572116852, -0.17264865338802338, -0.09712810069322586, -0.02991119585931301, -0.01801183633506298, -0.0961650013923645, 0.02072852849960327, -0.12621274590492249, -0.1532256156206131, -0.05150959640741348, -0.10902751237154007, 0.059987764805555344, -0.12965184450149536], [-0.01866132952272892, 0.058477915823459625, -0.10566817969083786, 0.12045732140541077, -0.046520259231328964, -0.044205442070961, -0.07749344408512115, -0.0409502275288105, -0.040883924812078476, -0.11083777248859406, 0.05105841904878616, 0.011230800300836563, 0.1341700553894043, 0.09212314337491989, 0.12042799592018127, 0.02945883944630623, 0.060528840869665146, 0.12857358157634735, 0.13339979946613312, -0.10743644833564758, -0.022337187081575394, -0.15230920910835266, 0.007552023511379957, -0.04194601625204086, 0.1293712854385376, 0.02862030826508999, -0.011571623384952545, -0.10042882710695267, -0.12943792343139648, 0.009852582588791847, -0.08765163272619247, -0.08726398646831512, 0.10124334692955017, 0.02474399283528328, 0.03574594110250473, 0.2108149528503418, 0.15638457238674164, 0.01797855645418167, 0.14370490610599518, 0.17275822162628174, -0.028208427131175995, 0.12695595622062683, 0.1329697072505951, 0.0943712592124939, 0.23838362097740173, 0.0045889802277088165, 0.17824028432369232, 0.023318104445934296], [-0.13590389490127563, 0.08345016837120056, -0.039361536502838135, -0.0018791225738823414, 0.1040324717760086, -0.11908470839262009, -0.10236392915248871, 0.04658710956573486, 0.14327353239059448, -0.002430269494652748, 0.10075654089450836, 0.0601390115916729, 0.03558060899376869, -0.08527009934186935, 0.12817490100860596, 0.06152859330177307, 0.001940655056387186, 0.08254462480545044, -0.0998627245426178, 0.017473552376031876, -0.04821036383509636, -0.02073667198419571, 0.0603133849799633, 0.0579310804605484, 0.0405389703810215, -0.10971755534410477, -0.10504516214132309, 0.005035229958593845, -0.03907312825322151, -0.12106847763061523, 0.12340331822633743, 0.006209592800587416, -0.10255908221006393, 0.16448642313480377, 0.16389787197113037, 0.03037659265100956, 0.17356103658676147, 0.01164526492357254, 0.1511945128440857, 0.23829087615013123, 0.19646574556827545, 0.17244210839271545, 0.07181856781244278, 0.1282813996076584, 0.15155334770679474, 0.1364385038614273, 0.07194259762763977, 0.1213231310248375], [-0.07650445401668549, -0.0985715389251709, -0.10485032945871353, -0.13112595677375793, -0.06150797754526138, 0.13941611349582672, 0.0489327497780323, -0.12023386359214783, -0.05655255913734436, 0.04695160314440727, -0.045864786952733994, -0.03455745056271553, -0.06543299555778503, -0.03243371099233627, 0.0006359802791848779, 0.005195483099669218, 0.06630866974592209, 0.07058846950531006, 0.14119505882263184, -0.023099545389413834, -0.04397949203848839, -0.005657808389514685, -0.08386325091123581, 0.06580381840467453, -0.010402418673038483, -0.04409695789217949, -0.13911841809749603, 0.06878496706485748, 0.0608278289437294, 0.12735261023044586, -0.07674791663885117, 0.032658711075782776, 0.0054407427087426186, 0.012852514162659645, 0.014560445211827755, 0.17870643734931946, 0.02189723774790764, 0.20989853143692017, 0.1552198976278305, 0.15408675372600555, 0.19985182583332062, 0.1754356473684311, 0.1670445054769516, 0.1796829253435135, 0.04354206472635269, 0.02825472503900528, 0.0783512070775032, 0.1849263608455658], [0.10101137310266495, 0.10629190504550934, -0.04552936926484108, -0.01831422932446003, -0.0991339311003685, 0.08899799734354019, -0.09571412950754166, -0.059393253177404404, 0.11918897926807404, 0.03507589176297188, -0.060424260795116425, -0.09719284623861313, -0.09925719350576401, 0.11648412048816681, -0.13192516565322876, 0.1247263178229332, 0.11546503752470016, 0.008943479508161545, -0.011569362133741379, 0.11225450038909912, 0.0636495053768158, 0.13647279143333435, 0.11659766733646393, -0.0946507379412651, 0.08907351642847061, 0.07279373705387115, -0.10248144716024399, 0.06932126730680466, -0.07497067004442215, -0.08599517494440079, 0.002692763926461339, -0.0177364032715559, -0.03880970925092697, -0.09465765953063965, 0.07895812392234802, 0.14391465485095978, -0.031982578337192535, -0.09725090116262436, -0.0074426536448299885, -0.12540194392204285, -0.11721015721559525, -0.048082053661346436, 0.09068799018859863, -0.11057904362678528, -0.02303386852145195, -0.0749501958489418, -0.13290446996688843, -0.03249194100499153], [-0.024239104241132736, -0.03991023823618889, 0.08939748257398605, 0.04149491712450981, 0.07416979223489761, 0.04091433063149452, -0.0007044182275421917, 0.06245092675089836, -0.10721790790557861, 0.05813537910580635, 0.0530216321349144, -0.07716302573680878, -0.019977649673819542, -0.12418452650308609, -0.14147312939167023, -0.01551931444555521, 0.01001479011029005, -0.04677402600646019, 0.028460925444960594, -0.12774835526943207, -0.09503354877233505, 0.08400047570466995, -0.15631361305713654, 0.006774244364351034, 0.09598494321107864, 0.09280120581388474, 0.03350875899195671, -0.14738155901432037, 0.003557666903361678, -0.06575413048267365, -0.05574628338217735, 0.09523186832666397, -0.049052029848098755, -0.1190628856420517, -0.1315579116344452, 0.07543965429067612, -0.008728165179491043, 0.12686435878276825, 0.013824678026139736, -0.15020368993282318, 0.020017357543110847, 0.1163824051618576, 0.07382960617542267, 0.027621332556009293, -0.12413422018289566, -0.102242611348629, 0.08231445401906967, -0.11220527440309525], [0.027735581621527672, -0.012480278499424458, 0.06632204353809357, 0.011228609830141068, -0.08394413441419601, -0.05145823583006859, 0.14481760561466217, 0.03428034111857414, 0.09154770523309708, -0.048556432127952576, 0.1196177527308464, -0.016226332634687424, -0.047419946640729904, 0.032389745116233826, -0.057845339179039, -0.04783768951892853, -0.03361198678612709, -0.006828054785728455, -0.06955812871456146, 0.04640033468604088, -0.12192739546298981, 0.0874534621834755, 0.14492273330688477, 0.037181317806243896, -0.024830760434269905, -0.1184382364153862, 0.05979859456419945, 0.1260114163160324, 0.1165393739938736, 0.009119942784309387, 0.03240925073623657, 0.14128194749355316, 0.021543728187680244, 0.025235995650291443, -0.042118921875953674, 0.15802496671676636, 0.15114498138427734, 0.2231898307800293, 0.02143668755888939, 0.1569155752658844, 0.04716522619128227, 0.05904702469706535, 0.1791384518146515, -0.03739096224308014, 0.20131613314151764, 0.16205079853534698, 0.009137376211583614, 0.1685745120048523]], "q_net.0.bias": [0.06088609620928764, 0.0856979712843895, -0.03863317146897316, -0.17260773479938507, -0.014948747120797634, 0.0704251229763031, -0.01679321937263012, 0.030340714380145073, 0.08455134928226471, -0.013413052074611187, 0.027695152908563614, -0.11193148791790009, -0.07738560438156128, -0.037290770560503006, 0.1460164189338684, 0.11801430583000183, -0.01310160756111145, 0.1455574780702591, 0.0790647640824318, -0.08849907666444778, -0.047893643379211426, 0.1846526563167572, 0.20607298612594604, 0.009411481209099293, -0.11154153943061829, 0.13791735470294952, -0.10240689665079117, 0.12059903889894485, 0.017106065526604652, 0.1567278653383255, -0.14069274067878723, -0.04569937288761139, 0.09633021056652069, 0.16725407540798187, 0.06101738288998604, 0.2195769101381302, 0.06590654700994492, -0.0945546105504036, -0.03367706388235092, 0.008981695398688316, -0.025653591379523277, 0.06985994428396225, -0.07987955957651138, 0.042581818997859955, -0.16808846592903137, 0.0973581075668335, -0.02715897746384144, -0.11378304660320282, -0.006964883767068386, -0.00026346405502408743, 0.02656782977283001, -0.03810804337263107, 0.19947801530361176, 0.02073548175394535, 0.04213230684399605, -0.03427581116557121, 0.1232249066233635, 0.08465071022510529, 0.09335139393806458, 0.21224161982536316, 0.21817868947982788, -0.07514934241771698, -0.028094392269849777, 0.02678416483104229], "q_net.2.weight": [[0.12591198086738586, 0.017750723287463188, 0.0381312370300293, 0.015243065543472767, -0.08205817639827728, -0.08403676748275757, -0.12209060788154602, 0.013756610453128815, 0.09388479590415955, 0.02533487044274807, 0.15710027515888214, -0.10991430282592773, -0.003652721643447876, -0.1064131110906601, 0.08238262683153152, 0.04882171377539635, -0.09812068939208984, 0.19113072752952576, -0.05319444090127945, 0.08736245334148407, -0.020981386303901672, 0.16685853898525238, 0.20638202130794525, -0.07471363991498947, -0.030385836958885193, 0.12138307094573975, -0.05126570910215378, 0.14157956838607788, -0.07851415872573853, 0.23033814132213593, -0.08192066848278046, -0.07991337776184082, 0.1761077344417572, 0.02636118046939373, 0.19408218562602997, 0.18920153379440308, 0.19902653992176056, -0.11943406611680984, 0.06647205352783203, -0.0411141961812973, 0.029775455594062805, -0.09438139200210571, 0.05125674605369568, 0.06714817136526108, -0.03560005500912666, -0.07351675629615784, 0.06538352370262146, -0.045238152146339417, 0.0922345370054245, 0.022251799702644348, 0.028462860733270645, 0.013985686004161835, 0.0976492315530777, 0.0019193529151380062, -0.027447033673524857, 0.07858704030513763, 0.008626075461506844, 0.07781030982732773, 0.028364740312099457, 0.16238738596439362, 0.21483257412910461, -0.07645076513290405, 0.11718346178531647, 0.07907754927873611], [-0.062197331339120865, 0.05494055151939392, 0.07077990472316742, 0.12065333873033524, -0.11899003386497498, 0.11287029087543488, 0.09476339817047119, 0.16506442427635193, 0.08642934262752533, -0.037706561386585236, 0.11579841375350952, 0.11423961818218231, -0.047796234488487244, -0.025999348610639572, 0.15456417202949524, 0.07419048249721527, 0.08791115880012512, 0.140939399600029, -0.05423186719417572, -0.023853087797760963, -0.04993860423564911, 0.11378150433301926, 0.07144558429718018, -0.12590566277503967, -0.015701457858085632, -0.09898402541875839, -0.14515209197998047, 0.1400514543056488, -0.06287762522697449, 0.1385047435760498, -0.02783481776714325, 0.053787969052791595, -0.04706211015582085, 0.15464460849761963, 0.019251951947808266, 0.14106982946395874, 0.11120704561471939, 0.06469574570655823, -0.07822012156248093, -0.05844941735267639, -0.101840540766716, -0.026548579335212708, -0.025890246033668518, 0.05041585862636566, 0.11954197287559509, 0.0446057990193367, -0.08698220551013947, -0.07839292287826538, 0.09438818693161011, 0.012443006038665771, 0.10892996937036514, -0.07260731607675552, 0.07174162566661835, 0.03002006560564041, -0.04800112545490265, 0.0815826803445816, 0.09901482611894608, -0.03569754585623741, -0.022818779572844505, 0.016627755016088486, 0.0862463191151619, -0.04585249722003937, 0.12852106988430023, -0.09677524864673615], [-0.07064993679523468, -0.07587231695652008, 0.03379754722118378, 0.017738372087478638, -0.03561951220035553, 0.10668225586414337, -0.10790663957595825, 0.04405626654624939, -0.06878145039081573, -0.02846357226371765, -0.12037505209445953, -0.09331338107585907, -0.10605615377426147, 0.05453424155712128, -0.04693831503391266, 0.06538759171962738, -0.06774361431598663, -0.03097057342529297, 0.015130877494812012, 0.10474057495594025, -0.03368920087814331, 0.07246522605419159, 0.03448398411273956, 0.07602532207965851, 0.07896353304386139, 0.0507269948720932, -0.037693411111831665, -0.035083308815956116, 0.048662662506103516, 0.06813031435012817, -0.006671682000160217, 0.06265942752361298, -0.07520239055156708, 0.07045726478099823, -0.015339359641075134, -0.08602148294448853, -0.06073550879955292, -0.09546227753162384, 0.025214672088623047, -0.07413259148597717, -0.035795435309410095, -0.007831871509552002, -0.07627008855342865, 0.003209710121154785, -0.015864074230194092, 0.03959275782108307, 0.09030094742774963, -0.07545864582061768, 0.06834328174591064, -0.0026483535766601562, -0.07144436240196228, -0.05668923258781433, 0.0318172425031662, 0.026026681065559387, -0.004037529230117798, -0.06223069131374359, 0.0630369633436203, 0.01854635775089264, -0.12151637673377991, -0.022090837359428406, -0.03391405940055847, -0.05333869159221649, -0.06933721899986267, -0.10140779614448547], [0.1929469108581543, -0.07292492687702179, 0.11619716882705688, -0.09108127653598785, -0.03032718598842621, -0.05120833218097687, -0.06690624356269836, 0.1286369115114212, 0.12106610834598541, -0.0418732725083828, 0.0027941642329096794, 0.06380337476730347, -0.015109509229660034, 0.03386596217751503, 0.1527845561504364, -0.04941422492265701, -0.0563349649310112, 0.12377505004405975, -0.020521625876426697, -0.09936057776212692, -0.06305195391178131, 0.027828844264149666, 0.19766665995121002, 0.01104280911386013, 0.05383408069610596, 0.05854539945721626, -0.059360165148973465, 0.15186266601085663, -0.01943109929561615, 0.08244004845619202, 0.101869598031044, 0.016123779118061066, -0.01918865740299225, -0.03146586939692497, 0.13997149467468262, 0.13119515776634216, -0.03291419520974159, 0.061854321509599686, 0.0705866664648056, -0.06454561650753021, 0.10657918453216553, 0.05368417501449585, 0.04392702877521515, 0.010202261619269848, -0.04471931979060173, -0.04146065562963486, 0.046962931752204895, 0.03367328643798828, -0.07481221854686737, 0.11374400556087494, 0.14147143065929413, -0.031150931492447853, 0.17094427347183228, -0.03673965483903885, 0.09914357215166092, 0.10404160618782043, -0.05308793857693672, -0.022731855511665344, 0.06571945548057556, 0.10090400278568268, -0.006763409823179245, -0.08223770558834076, 0.002026438945904374, 0.039706259965896606], [0.11497673392295837, 0.07999967783689499, 0.025642752647399902, 0.0015527007635682821, 0.014367148280143738, -0.007214844226837158, 0.044890329241752625, 0.18469665944576263, 0.008581645786762238, -0.053052451461553574, 0.13707727193832397, -0.09039171040058136, 0.08123224973678589, 0.06375054270029068, 0.1215863898396492, -0.06651836633682251, 0.019420379772782326, -0.006546344142407179, -0.11251740902662277, 0.09401483833789825, -0.1121157854795456, 0.0012760197278112173, 0.04847414419054985, -0.010325174778699875, 0.028629258275032043, 0.005012652836740017, 0.06549342721700668, 0.07205355167388916, 0.10459068417549133, 0.23191410303115845, 0.051376134157180786, 0.006965179927647114, 0.12114544212818146, -0.004210684914141893, 0.15047137439250946, 0.040545504540205, 0.18919046223163605, -0.1068258062005043, 0.11860145628452301, -0.10277293622493744, 0.07295602560043335, 0.022856205701828003, 0.10725484788417816, -0.016439253464341164, 0.10536887496709824, -0.01937282457947731, -0.0674731433391571, 0.04754459857940674, -0.021040409803390503, -0.09869164228439331, -0.09791696816682816, 0.00845132302492857, 0.1516530066728592, 0.1540360450744629, 0.1743566244840622, 0.002048581838607788, 0.006722749210894108, -0.10031245648860931, 0.2015828788280487, 0.029585087671875954, 0.08988568186759949, -0.10086436569690704, -0.06892161816358566, 0.10569193214178085], [-0.030902624130249023, 0.014314234256744385, -0.0009559690952301025, 0.006368562579154968, -0.02476806938648224, -0.0048337578773498535, 0.05433349311351776, 0.09131483733654022, 0.10565368831157684, -0.10198347270488739, -0.10566368699073792, -0.01868174970149994, -0.009535819292068481, 0.06899219751358032, 0.11766986548900604, 0.03209969401359558, -0.08878235518932343, -0.014148727059364319, 0.08084100484848022, 0.046119242906570435, -0.08840170502662659, 0.0072959959506988525, -0.12069566547870636, -0.050369903445243835, 0.08742542564868927, -0.05422297120094299, 0.07632023096084595, -0.10195928812026978, 0.11051304638385773, 0.05962568521499634, 0.08100123703479767, 0.03413662314414978, 0.008855834603309631, -0.061560675501823425, -0.06897410750389099, -0.08583992719650269, 0.10330565273761749, -0.04338495433330536, 0.00304529070854187, -0.11751335859298706, 0.03354848921298981, -0.04261079430580139, -0.09997855126857758, 0.015470370650291443, -0.1151517927646637, -0.012315690517425537, -0.1020803451538086, 0.07902544736862183, -0.0992705225944519, 0.02041567862033844, 0.06189323961734772, -0.09987670183181763, 0.0809205174446106, 0.10180169343948364, -0.07662461698055267, 0.010467112064361572, 0.03790539503097534, 0.10352562367916107, 0.0976586788892746, -0.10485148429870605, -0.10188338160514832, -0.11052727699279785, -0.0555926114320755, -0.025232166051864624], [0.03564762696623802, 0.14810433983802795, -0.08614654839038849, -0.06242704764008522, -0.09771457314491272, -0.07378214597702026, 0.12243308126926422, 0.11605367064476013, 0.04293527826666832, -0.001889302278868854, -0.02055818773806095, -0.04241015017032623, 0.0658530443906784, 0.08082890510559082, 0.18951869010925293, 0.007546193432062864, -0.05455228313803673, 0.01444200798869133, 0.14622843265533447, -0.09535729140043259, 0.02959306538105011, 0.0861847922205925, 0.20743879675865173, 0.04874609783291817, -0.031579792499542236, -0.04284070432186127, 0.05810105800628662, -0.0139453811571002, -0.013183355331420898, 0.1628645360469818, 0.06104099750518799, 0.009010059759020805, -0.07795681059360504, -0.03654579445719719, -0.02409074455499649, 0.1304364949464798, 0.012853440828621387, 0.012414430268108845, 0.021550709381699562, -0.08459113538265228, 0.08428658545017242, 0.0707397311925888, 0.08776752650737762, 0.19385556876659393, -0.06672358512878418, -0.04650105908513069, -0.09410557150840759, 0.08393463492393494, 0.07365085184574127, 0.10132990777492523, -0.07160566747188568, -0.039896462112665176, 0.24310141801834106, -0.04541109874844551, 0.0016706924652680755, 0.04601883888244629, -0.017767513170838356, -0.017357515171170235, 0.1420007199048996, 0.19181570410728455, 0.09784702956676483, -0.11061757802963257, 0.08496828377246857, 0.20729868113994598], [-0.09279727935791016, -0.005522400140762329, -0.09042209386825562, -0.06382741034030914, 0.04206579923629761, 0.058398351073265076, 0.0516890287399292, -0.11773553490638733, -0.03030332922935486, 0.05327415466308594, -0.011602699756622314, -0.03864404559135437, -0.0645691305398941, 0.11852219700813293, -0.10005725920200348, -0.0984647274017334, 0.09108930826187134, -0.0759255439043045, 0.0755351185798645, -0.06890524923801422, -0.016909703612327576, -0.060395747423172, 0.10327692329883575, 0.0866580456495285, 0.006006389856338501, 0.0029972046613693237, -0.04717424511909485, -0.06681510806083679, -0.0472811758518219, 0.040931493043899536, -0.022483423352241516, 0.08484724164009094, 0.017997413873672485, 0.0013798624277114868, -0.0776786208152771, 0.05042654275894165, -0.11562590301036835, 0.029205158352851868, 0.04485081136226654, 0.022621259093284607, 0.08797167241573334, 0.030000820755958557, -0.03452245891094208, -0.08746936917304993, -0.1160130649805069, 0.06308530271053314, 0.06804220378398895, -0.09534716606140137, 0.033465832471847534, -0.04596509039402008, 0.10528181493282318, -0.04308547079563141, 0.10346829891204834, 0.08841431140899658, 0.06913663446903229, 0.08542558550834656, 0.038985028862953186, 0.04237273335456848, -0.10626912117004395, -0.02853722870349884, -0.014169737696647644, 0.06065087020397186, -0.048437878489494324, 0.05727541446685791], [0.07896231859922409, 0.04798959568142891, 0.06433667242527008, -0.016660839319229126, 0.05987830460071564, -0.04286578297615051, 0.10828186571598053, -0.009115775115787983, -0.013199014589190483, -0.11005158722400665, 0.10970382392406464, -0.01748904585838318, 0.0931011289358139, -0.08177565038204193, -0.11047523468732834, -0.0200079083442688, -0.09995001554489136, 0.018110189586877823, -0.004218543414026499, -0.045839086174964905, 0.07826660573482513, 0.07507490366697311, -0.11627818644046783, -0.10014007985591888, 0.07312789559364319, -0.08182889968156815, 0.018238987773656845, -0.03915068134665489, 0.022352799773216248, -0.07488622516393661, 0.0003994405269622803, -0.05015537142753601, -0.062212876975536346, -0.06735577434301376, 0.022013718262314796, 0.0749819353222847, -0.008988129906356335, -0.001220807433128357, 0.09722618013620377, 0.10076309740543365, -0.018146201968193054, -0.10235615074634552, 0.02933354675769806, 0.03141357749700546, -0.10480321943759918, -0.11213429272174835, 0.013111576437950134, 0.12206152081489563, -0.11180619895458221, -0.06124711036682129, -0.04310812056064606, -0.11578485369682312, -0.08287392556667328, 0.09220860153436661, 0.0896955281496048, -0.09196142852306366, -0.0032281384337693453, -0.10180607438087463, 0.04600983113050461, -0.09128602594137192, -0.06961042433977127, -0.057938843965530396, 0.018425241112709045, 0.07762033492326736], [-0.08794798702001572, 0.003936675377190113, 0.09952765703201294, 0.01226598210632801, 0.012907132506370544, 0.009281828999519348, -0.0015968233346939087, 0.06022093445062637, 0.03461669385433197, -0.07883065938949585, 0.08862961828708649, 0.07192562520503998, -0.019558757543563843, 0.09882926940917969, -0.02259872481226921, 0.07269132137298584, -0.11877739429473877, 0.07944135367870331, 0.06165207177400589, -0.07145984470844269, -0.1118808388710022, -0.055891625583171844, -0.10475657880306244, 0.02817538008093834, 0.05564159154891968, -0.040577683597803116, 0.05212129279971123, -0.0070906332693994045, -0.036738961935043335, -0.11135736852884293, 0.03972765803337097, -0.16406288743019104, -0.00814045500010252, -0.027133438736200333, -0.09590058028697968, 0.0437316969037056, 0.001549073145724833, 0.09829610586166382, 0.06939299404621124, -0.10115951299667358, -0.0927477478981018, -0.045877933502197266, -0.08992494642734528, 0.008780200965702534, -0.09728747606277466, -0.08454859256744385, 0.03640773892402649, 0.07543978095054626, -0.036340296268463135, -0.12455706298351288, -0.044356364756822586, 0.03528689220547676, 0.07831893861293793, -0.00047925132093951106, 0.0676402747631073, -0.1117672324180603, 0.10181747376918793, -0.1869974285364151, -0.1090397983789444, 0.055047959089279175, -0.04739047586917877, 0.07714186608791351, -0.10193583369255066, 0.07415276765823364], [0.13732896745204926, 0.030540142208337784, 0.10083675384521484, -0.11109952628612518, -0.027601614594459534, 0.038047343492507935, 0.07063625752925873, -0.04181232303380966, 0.07764186710119247, -0.06362838298082352, -0.0527079701423645, 0.024451613426208496, -0.09956346452236176, -0.10328145325183868, 0.06905534863471985, 0.0385829322040081, 0.048068612813949585, 0.004391017369925976, -0.11823154240846634, -0.0908999890089035, 0.11961233615875244, -0.07381822168827057, 0.05477171763777733, 0.08695490658283234, 0.09549693763256073, -0.07756960391998291, 0.026885243132710457, -0.013192245736718178, 0.0784086138010025, -0.07210198044776917, -0.11507336795330048, -0.08551998436450958, 0.042836736887693405, 0.09859048575162888, 0.10180788487195969, 0.13981297612190247, -0.046978965401649475, -0.06040924787521362, -0.056149065494537354, 0.04124478995800018, 0.048623234033584595, 0.025938257575035095, -0.09616491198539734, 0.012190189212560654, -0.05160551518201828, 0.07050185650587082, -0.019351139664649963, 0.006213456392288208, -0.10960239171981812, 0.10669983923435211, -0.14200209081172943, -0.08094968646764755, 0.1171950250864029, 0.017973825335502625, 0.09190504997968674, 0.07058538496494293, 0.09057147800922394, -0.050882816314697266, 0.09810049086809158, -0.027700837701559067, -0.038172364234924316, 0.05968816578388214, 0.03503579646348953, 0.003353549400344491], [-0.06959190964698792, 0.05835982784628868, 0.08096915483474731, -0.020168159157037735, 0.028717592358589172, 0.05564756691455841, -0.12344737350940704, 0.03590121492743492, -0.02862962894141674, -0.037209395319223404, 0.10732613503932953, 0.12393593788146973, 0.019944995641708374, 0.07409730553627014, -0.05311945825815201, 0.022445226088166237, -0.01878582313656807, -0.03849397599697113, 0.011307962238788605, 0.052221499383449554, -0.006037488579750061, 0.10754493623971939, 0.09618592262268066, 0.1032281219959259, 0.007246062159538269, 0.022950084879994392, 0.022869884967803955, 0.05615014210343361, -0.08105228841304779, 0.05787895992398262, -0.10570405423641205, -0.07427067309617996, -0.15148034691810608, 0.11534326523542404, -0.025712991133332253, 0.05787605792284012, 0.046592459082603455, 0.12164678424596786, 0.08786732703447342, -0.08901664614677429, 0.12225945293903351, -0.11839832365512848, 0.016252219676971436, 0.13488824665546417, 0.11513402312994003, 0.002855210565030575, -0.08342020213603973, 0.054887592792510986, 0.0963577926158905, -0.06663747131824493, -0.03931941092014313, -0.07790235430002213, 0.10265039652585983, 0.02394857443869114, 0.08622059226036072, -0.04288725554943085, -0.09723705053329468, -0.1018986776471138, -0.048363469541072845, 0.013976935297250748, 0.09866450726985931, -0.1039915382862091, -0.014887873083353043, -0.09119046479463577], [-0.01428934931755066, -0.034352898597717285, -0.04256066679954529, -0.051357004791498184, 0.019240528345108032, 0.07641303539276123, 0.09425346553325653, 0.13042329251766205, 0.054880574345588684, 0.022779926657676697, 0.15506860613822937, -0.07159130275249481, 0.0903511494398117, -0.12211065739393234, -0.010757038369774818, 0.03435328230261803, -0.03860163316130638, 0.10221623629331589, 0.12502853572368622, 0.07571134716272354, 0.12234611809253693, 0.036416538059711456, 0.017279716208577156, -0.026572439819574356, -0.025174975395202637, -5.410308949649334e-05, 0.03631554916501045, 0.18445223569869995, -0.0685197114944458, 0.18852563202381134, 0.05806821584701538, 0.10892415791749954, -0.0020582929719239473, 0.014012647792696953, 0.13226397335529327, 0.04405051842331886, -0.0007514978642575443, 0.12669211626052856, 0.17190402746200562, -0.09033791720867157, 0.10153168439865112, 0.025919988751411438, 0.03204083442687988, 0.18114306032657623, 0.01704253815114498, -0.009628279134631157, 0.07847195863723755, -0.03228923678398132, -0.030007705092430115, -0.05040690302848816, 0.13273349404335022, 0.08445878326892853, 0.0820171982049942, 0.030674466863274574, 0.0768815353512764, -0.07409955561161041, 0.10535701364278793, -0.08896945416927338, 0.07652166485786438, 0.059665728360414505, 0.04443473741412163, 0.11561106145381927, 0.04735225439071655, 0.13056954741477966], [-0.08228199183940887, 0.019921675324440002, 0.03349690139293671, 0.06488986313343048, -0.036884695291519165, -0.02454701066017151, -0.10148642957210541, 0.07597211003303528, 0.08344459533691406, 0.058636054396629333, 0.06352698802947998, 0.07486872375011444, 0.11782558262348175, 0.04093611240386963, 0.045122936367988586, 0.039316847920417786, -0.07059009373188019, 0.03136222064495087, 0.03766147792339325, -0.0994940996170044, -0.036994487047195435, -0.07712431252002716, -0.07986988127231598, 0.08686769008636475, 0.09833578765392303, -0.017231643199920654, 0.03831334412097931, -0.029275551438331604, 0.026502296328544617, -0.020925864577293396, -0.06502680480480194, -0.0525919646024704, 0.12416402995586395, 0.02107056975364685, -0.0683569610118866, 0.014189571142196655, -0.12470681965351105, 0.001102641224861145, 0.09595666825771332, 0.014417782425880432, 0.02978251874446869, -0.11774612963199615, -0.023511096835136414, 0.07376047968864441, -0.0916503518819809, -0.05847609043121338, 0.08447569608688354, 0.035897329449653625, 0.058434173464775085, -0.11656463146209717, 0.0795561671257019, -0.027264073491096497, 0.026270732283592224, 0.1010376513004303, -0.11519499123096466, 0.03576399385929108, -0.11300288140773773, 0.09254232048988342, 0.03670394420623779, 0.013908684253692627, -0.0500764399766922, 0.04712940752506256, -0.06488180160522461, 0.023894697427749634], [0.14335785806179047, -0.07104519754648209, -0.035665541887283325, 0.024272525683045387, 0.02169729769229889, 0.0017189830541610718, 0.10753999650478363, 0.008436177857220173, 0.05830492079257965, 0.06946323812007904, 0.0037547326646745205, 0.0816790908575058, 0.08163747191429138, 0.05947761610150337, 0.01638861373066902, 0.10425765067338943, -0.06766021251678467, 0.08718180656433105, 0.0015484007308259606, 0.06489488482475281, -0.10245811939239502, 0.0784020870923996, -0.012562217190861702, 0.03314148634672165, 0.0429241806268692, -0.08160819113254547, 0.019039394333958626, 0.09490897506475449, 0.053248777985572815, 0.18603509664535522, 0.05613647401332855, 0.015629084780812263, 0.11579591035842896, -0.05108136683702469, 0.13471411168575287, 0.023135986179113388, 0.12124098837375641, 0.022944100201129913, 0.02437923476099968, 0.08798879384994507, -0.07286965847015381, 0.035250186920166016, 0.05479694902896881, -0.006496103014796972, 0.06025443226099014, -0.10399788618087769, -0.06313358247280121, 0.06077563762664795, 0.0644274652004242, -0.11473719775676727, 0.0766858235001564, 0.03523480147123337, 0.20996971428394318, -0.11268595606088638, 0.013494757935404778, -0.07079225778579712, -0.02776382863521576, 0.02822093293070793, -0.09027304500341415, 0.15077835321426392, 0.03228235989809036, 0.043799012899398804, -0.06282376497983932, 0.03302449360489845], [-0.08855414390563965, 0.10061027109622955, 0.10542209446430206, 0.09841127693653107, -0.04375927150249481, 0.07779838144779205, -0.10443782806396484, 0.057355061173439026, -0.015429198741912842, -0.10358422994613647, -0.10031889379024506, -0.11697356402873993, 0.023423895239830017, -0.045210957527160645, -0.0575704425573349, 0.11900056898593903, -0.0380844920873642, 0.04216216504573822, -0.022005334496498108, 0.07538488507270813, 0.03730195760726929, 0.07915744185447693, 0.03263981640338898, -0.02739603817462921, 0.11047874391078949, -0.00891140103340149, -0.07483042776584625, 0.0388990193605423, -0.015168264508247375, -0.0927039086818695, 0.016351833939552307, -0.029043644666671753, -0.049778953194618225, -0.05965825915336609, -0.053195029497146606, -0.050620317459106445, 0.0122823566198349, 0.12075851857662201, -0.0732668936252594, -0.0583149790763855, -0.08379335701465607, -0.004743203520774841, 0.00876423716545105, -0.08579917252063751, 0.057096198201179504, -0.11210842430591583, 0.11569531261920929, 0.023523539304733276, -0.012598171830177307, -0.04475821554660797, 0.056124985218048096, 0.09127923846244812, -0.08176104724407196, -0.03133220970630646, 0.09201948344707489, -0.023425862193107605, -0.09204253554344177, -0.04017072916030884, 0.004317879676818848, -0.023335829377174377, -0.08566199243068695, -0.07831151783466339, 0.033798590302467346, 0.08576750755310059], [0.18019244074821472, 0.028223348781466484, 0.04809415340423584, -0.08709508925676346, 0.06660838425159454, 0.11944392323493958, 0.06509314477443695, 0.03428775817155838, 0.1542213410139084, -0.07926997542381287, 0.04329245910048485, -0.03097197413444519, -0.12468330562114716, -0.06553484499454498, -0.0047096386551856995, 0.02765304408967495, 0.0016466795932501554, 0.13420942425727844, 0.029462695121765137, 0.11224990338087082, 0.014158517122268677, 0.1815439760684967, 0.17041581869125366, -0.12503275275230408, -0.0839463621377945, 0.11326650530099869, 0.11038938909769058, -0.06043394282460213, 0.001829490065574646, 0.06501356512308121, 0.11768285930156708, 0.23203881084918976, 0.03470407426357269, 0.13250702619552612, 0.06165618821978569, 0.18046480417251587, 0.01041982602328062, -0.012985401786863804, 0.021478405222296715, -0.0911882221698761, -0.0592358261346817, 0.030307486653327942, -0.011152639985084534, -0.025678185746073723, 0.0037364070303738117, 0.026460813358426094, -0.08745642006397247, 0.07549197971820831, -0.10627348721027374, 0.0011959224939346313, -0.013380864635109901, -0.10337229818105698, 0.09138885140419006, 0.1384180337190628, 0.1778765618801117, 0.044926077127456665, 0.15633736550807953, 0.0004145009152125567, 0.14320972561836243, 0.15393954515457153, -0.02514560893177986, -0.09579141438007355, 0.06709989160299301, 0.06770477443933487], [-0.013420616276562214, -0.044006671756505966, 0.09034115076065063, 0.03062509000301361, -0.00027664005756378174, -0.12083937227725983, 0.1096741259098053, 0.0019550311844795942, 0.1104029193520546, 0.008549874648451805, 0.06532306969165802, 0.061376288533210754, -0.03329865634441376, -0.03186111897230148, 0.18172894418239594, -0.11210267245769501, 0.06872441619634628, 0.04834567382931709, -0.029669765383005142, 0.06316134333610535, 0.021103128790855408, -0.025423217564821243, 0.19858823716640472, -0.08989179134368896, 0.10806068778038025, 0.009135005064308643, 0.15267927944660187, 0.10043415427207947, -0.006038486957550049, 0.16804134845733643, -0.0038871318101882935, -0.030122408643364906, 0.10177651792764664, 0.15680955350399017, 0.06668160855770111, 0.20914383232593536, 0.08896129578351974, -0.06832551956176758, -0.00015649468696210533, 0.08410364389419556, -0.0506359338760376, 0.0789509117603302, -0.12142419815063477, 0.07211964577436447, -0.06358233839273453, 0.06578720360994339, 0.10151530802249908, 0.04918898642063141, -0.042978331446647644, -0.11726383864879608, -0.02985585853457451, -0.04852595925331116, 0.2379671186208725, -0.030253002420067787, 0.12495549023151398, 0.10034573078155518, 0.12650759518146515, -0.08358205109834671, 0.056831199675798416, 0.045412179082632065, 0.18814443051815033, -0.011725500226020813, 0.007037823554128408, 0.1817375272512436], [0.11901881545782089, 0.1258259117603302, -0.040238648653030396, 0.0820012167096138, 0.017972633242607117, -0.025109171867370605, 0.024089157581329346, 0.0025259859394282103, 0.0790235698223114, 0.09418025612831116, -0.03616877272725105, -0.06639750301837921, 0.07831518352031708, 0.007727398537099361, 0.10763426870107651, -0.0026740606408566236, -0.03946433588862419, 0.19801358878612518, -0.0010634663049131632, -0.06939174979925156, 0.06579871475696564, 0.0004739691794384271, 0.07475156337022781, -0.005835716612637043, -0.03879280388355255, 0.13380058109760284, -0.05211912468075752, 0.04776843637228012, -0.052537232637405396, 0.24038554728031158, 0.049885645508766174, -0.059226877987384796, 0.07606250792741776, 0.09210439771413803, 0.213499054312706, 0.1746087223291397, 0.020737633109092712, 0.11046119779348373, 0.04410381242632866, -0.02846367657184601, 0.0373784601688385, 0.1241888552904129, 0.03771612048149109, -0.040446687489748, -0.014821293763816357, 0.16578826308250427, -0.04405660927295685, -0.06013685464859009, -0.09963585436344147, -0.06900165975093842, -0.03445577621459961, 0.06126664951443672, 0.16992218792438507, 0.16441486775875092, 0.16484500467777252, 0.001846998929977417, 0.1510348618030548, 0.10867443680763245, -0.016477741301059723, 0.1640559732913971, 0.028731904923915863, 0.096527099609375, -0.037716858088970184, 0.1068752184510231], [-0.001330047845840454, 0.05799292027950287, 0.01944252848625183, -0.09067437052726746, 0.05063633620738983, 0.07373704016208649, -0.06509554386138916, -0.08108833432197571, -0.08511678874492645, -0.060819417238235474, -0.01575949788093567, 0.009346306324005127, -0.0008816421031951904, -0.03306114673614502, 0.07756978273391724, 0.006605923175811768, -0.07258157432079315, -0.03308124840259552, -0.07349185645580292, -0.04409833252429962, -0.11791308224201202, 0.02184128761291504, -0.09685459733009338, 0.04834568500518799, 0.08562996983528137, -0.0929909497499466, -0.06596642732620239, -0.09876707196235657, 0.033358827233314514, 0.0241868793964386, -0.06451845169067383, 0.07551009953022003, 0.05186834931373596, -0.11294230818748474, -0.006799370050430298, -0.05381116271018982, -0.021673768758773804, 0.06960059702396393, -0.013445034623146057, -0.08681420981884003, 0.08792932331562042, -0.11425571143627167, -0.04292912781238556, 0.048164188861846924, 0.11048613488674164, 0.12131781876087189, -0.02936503291130066, 0.04171207547187805, -0.10977892577648163, -0.024322539567947388, -0.0388820618391037, 0.03548422455787659, -0.08190031349658966, 0.027005910873413086, 0.06457936763763428, 0.097418412566185, -0.02113594114780426, 0.11420078575611115, -0.11810074746608734, -0.03542177379131317, 0.04738935828208923, 0.03205330669879913, 0.0588672012090683, -0.08294689655303955], [0.06953279674053192, -0.1246948167681694, -0.08570978045463562, -0.008501023054122925, -0.12143836915493011, -0.11881610751152039, -0.11096656322479248, 0.09333173930644989, 0.019909001886844635, -0.03988391160964966, -0.012647836469113827, -0.10895232856273651, -0.11805632710456848, -0.08717238903045654, -0.12869179248809814, 0.0822390764951706, -0.043741375207901, -0.041169773787260056, -0.11505331844091415, 0.020702630281448364, -0.018754273653030396, -0.09246556460857391, 0.07276305556297302, 0.10536371171474457, -0.08909742534160614, 0.06342977285385132, -0.02801274135708809, -0.008026616647839546, 0.05320607125759125, -0.030000122264027596, 0.10620541870594025, 0.0692380964756012, -0.08753596991300583, -0.08310778439044952, -0.13114063441753387, 0.03240508958697319, -0.10134778916835785, -0.10477237403392792, -0.08744613081216812, -0.12358397245407104, -0.10178038477897644, 0.11149561405181885, 0.06982317566871643, 0.10326042771339417, -0.06717337667942047, -0.05898277461528778, -0.04385848343372345, 0.002441316843032837, -0.08972068130970001, 0.018325254321098328, -0.08011235296726227, 0.012329775840044022, 0.10725639760494232, 0.01389770396053791, 0.08382412046194077, -0.08902613818645477, -0.024876846000552177, -0.08315014094114304, -0.021116571500897408, -0.05712753161787987, -0.07827427238225937, -0.12074257433414459, -0.04634910821914673, 0.009469946846365929], [-0.03081432916224003, -0.12501387298107147, 0.09389729797840118, 0.08668896555900574, -0.07536265254020691, 0.012706905603408813, 0.08300112187862396, -0.1270776242017746, -0.1182766780257225, 0.060936782509088516, -0.011283475905656815, 0.03980475664138794, -0.05198186635971069, 0.02820778824388981, 0.075258269906044, -0.037493251264095306, -0.048713527619838715, -0.12790857255458832, -0.027836183086037636, 0.07920819520950317, -0.11813360452651978, -0.01843073219060898, 0.08236260712146759, -0.03567683696746826, -0.04618354141712189, -0.04661501571536064, -0.05927593261003494, 0.006299287546426058, -0.12035049498081207, 0.03826660290360451, -0.031569480895996094, -0.015914812684059143, -0.01682509109377861, 0.06111223250627518, -0.07884914427995682, -0.1227092295885086, -0.09937689453363419, -0.09169881045818329, -0.06952276825904846, 0.09872694313526154, -0.09670189023017883, -0.07347849011421204, -0.10190045833587646, -0.07172165811061859, -0.012099762447178364, -0.08484646677970886, 0.001321256160736084, 0.04224236309528351, -0.02126730978488922, 0.05393248796463013, 0.023470712825655937, 0.11197982728481293, -0.015224585309624672, 0.1083449125289917, 0.08492472767829895, 0.059756070375442505, 0.06142638623714447, -0.0905991941690445, -0.09217788279056549, 0.04455560818314552, 0.036451052874326706, 0.11280445754528046, -0.024758528918027878, -0.031895171850919724], [0.06012415885925293, -0.024686558172106743, 0.11735279858112335, -0.07306838035583496, -0.04101274907588959, 0.005401000380516052, 0.06666804850101471, -0.13778667151927948, -0.06431262940168381, 0.07876609265804291, 0.0026169074699282646, 0.08837233483791351, -0.04234185814857483, -0.06813276559114456, -0.10543569177389145, -0.07489005476236343, -0.10499519854784012, 0.03657957538962364, 0.013108969666063786, -0.07997804880142212, 0.11457459628582001, 0.009187719784677029, 0.021191630512475967, -0.04747121408581734, 0.08654223382472992, -0.11494063585996628, 0.07149355858564377, -0.08573343604803085, 0.053092002868652344, -0.0732586458325386, 0.08120864629745483, -0.12923486530780792, -0.04608410224318504, -0.053597114980220795, -0.1000562459230423, -0.08335255086421967, -0.06357994675636292, 0.005425887648016214, 0.06734208017587662, -0.020540907979011536, 0.12252508103847504, -0.05948376655578613, -0.06435185670852661, -0.03309830650687218, -0.040213145315647125, 0.02257067710161209, 0.11549825966358185, 0.042798757553100586, -0.10459618270397186, -0.04270733892917633, -0.02834298647940159, -0.12745364010334015, 0.011878395453095436, 0.08386733382940292, 0.0377463772892952, -0.002475172281265259, -0.03826258331537247, -0.08158983290195465, -0.042487937957048416, 0.08407527953386307, -0.09060153365135193, 0.019998207688331604, -0.10203184187412262, -0.06213292479515076], [0.08639086782932281, -0.03177787363529205,